{"learner":{"attributes":{"scikit_learn":"{\"_estimator_type\": \"classifier\"}"},"feature_names":["Pregnancies","Glucose","BloodPressure","SkinThickness","Insulin","BMI","DiabetesPedigreeFunction","Age"],"feature_types":["int","float","float","float","float","float","float","int"],"gradient_booster":{"model":{"gbtree_model_param":{"num_parallel_tree":"1","num_trees":"200"},"iteration_indptr":[0,1,2,3,4,5,6,7,8,9,10,11,12,13,14,15,16,17,18,19,20,21,22,23,24,25,26,27,28,29,30,31,32,33,34,35,36,37,38,39,40,41,42,43,44,45,46,47,48,49,50,51,52,53,54,55,56,57,58,59,60,61,62,63,64,65,66,67,68,69,70,71,72,73,74,75,76,77,78,79,80,81,82,83,84,85,86,87,88,89,90,91,92,93,94,95,96,97,98,99,100,101,102,103,104,105,106,107,108,109,110,111,112,113,114,115,116,117,118,119,120,121,122,123,124,125,126,127,128,129,130,131,132,133,134,135,136,137,138,139,140,141,142,143,144,145,146,147,148,149,150,151,152,153,154,155,156,157,158,159,160,161,162,163,164,165,166,167,168,169,170,171,172,173,174,175,176,177,178,179,180,181,182,183,184,185,186,187,188,189,190,191,192,193,194,195,196,197,198,199,200],"tree_info":[0,0,0,0,0,0,0,0,0,0,0,0,0,0,0,0,0,0,0,0,0,0,0,0,0,0,0,0,0,0,0,0,0,0,0,0,0,0,0,0,0,0,0,0,0,0,0,0,0,0,0,0,0,0,0,0,0,0,0,0,0,0,0,0,0,0,0,0,0,0,0,0,0,0,0,0,0,0,0,0,0,0,0,0,0,0,0,0,0,0,0,0,0,0,0,0,0,0,0,0,0,0,0,0,0,0,0,0,0,0,0,0,0,0,0,0,0,0,0,0,0,0,0,0,0,0,0,0,0,0,0,0,0,0,0,0,0,0,0,0,0,0,0,0,0,0,0,0,0,0,0,0,0,0,0,0,0,0,0,0,0,0,0,0,0,0,0,0,0,0,0,0,0,0,0,0,0,0,0,0,0,0,0,0,0,0,0,0,0,0,0,0,0,0,0,0,0,0,0,0],"trees":[{"base_weights":[-3.4383934E-8,-6.5463763E-1,1.1725743E0,-1.0768644E0,1.05981946E-1,6.075466E-1,2.2617054E0,-1.2200161E0,1.06983975E-1,-9.363879E-1,1.013142E0,-1.8349913E-1,1.3238657E0,2.3796307E-2,6.1595E-3,-1.2664545E0,-1.4052626E-4,-7.3705926E-3,9.782471E-3,-1.2048849E0,-1.7975672E-1,-8.672466E-3,1.3075931E0,-1.2119119E-2,4.550156E-1,5.4645824E-1,1.9328071E0,-1.3139726E-2,-2.5449255E-3,-3.2739688E-3,-1.29788015E-2,6.1595E-3,-6.794683E-3,-3.2739688E-3,1.5149887E0,1.337788E0,-1.9551252E-1,1.4232869E-2,-1.5805754E-1,6.1595E-3,2.083404E-2,6.777145E-3,1.984078E-2,1.8021634E-2,1.4427657E-3,-5.2813906E-3,6.1595E-3,-5.6012296E-3,6.1595E-3],"categories":[],"categories_nodes":[],"categories_segments":[],"categories_sizes":[],"default_left":[0,0,0,0,0,0,0,0,0,0,0,0,0,0,0,0,0,0,0,0,0,0,0,0,0,0,0,0,0,0,0,0,0,0,0,0,0,0,0,0,0,0,0,0,0,0,0,0,0],"id":0,"left_children":[1,3,5,7,9,11,13,15,17,19,21,23,25,-1,-1,27,-1,-1,-1,29,31,-1,33,-1,35,37,39,-1,-1,-1,-1,-1,-1,-1,41,43,45,-1,47,-1,-1,-1,-1,-1,-1,-1,-1,-1,-1],"loss_changes":[7.461903E1,2.014837E1,2.005828E1,6.9438705E0,2.2865906E1,1.4011348E1,7.717781E-1,1.9953651E0,4.5865126E0,2.0800638E0,8.261656E0,8.710484E0,5.037903E0,0E0,0E0,1.3295593E0,0E0,0E0,0E0,2.4166393E-1,2.0632143E0,0E0,4.4053802E0,0E0,5.0812325E0,4.5791593E0,7.013893E-2,0E0,0E0,0E0,0E0,0E0,0E0,0E0,2.743536E0,1.7841649E0,1.8650221E0,0E0,1.8413826E0,0E0,0E0,0E0,0E0,0E0,0E0,0E0,0E0,0E0,0E0],"parents":[2147483647,0,0,1,1,2,2,3,3,4,4,5,5,6,6,7,7,8,8,9,9,10,10,11,11,12,12,15,15,19,19,20,20,22,22,24,24,25,25,26,26,34,34,35,35,36,36,38,38],"right_children":[2,4,6,8,10,12,14,16,18,20,22,24,26,-1,-1,28,-1,-1,-1,30,32,-1,34,-1,36,38,40,-1,-1,-1,-1,-1,-1,-1,42,44,46,-1,48,-1,-1,-1,-1,-1,-1,-1,-1,-1,-1],"split_conditions":[1.28E2,1.14E2,1.66E2,7.57E-1,2.9E1,3.4E1,5.8E1,1E1,3.27E1,3.5E1,1.92E-1,2.5E1,3.1E1,2.3796307E-2,6.1595E-3,4.2E1,-1.4052626E-4,-7.3705926E-3,9.782471E-3,1.2E2,6.5E1,-8.672466E-3,2.72E1,-1.2119119E-2,3.5E1,7.2E1,2.87E-1,-1.3139726E-2,-2.5449255E-3,-3.2739688E-3,-1.29788015E-2,6.1595E-3,-6.794683E-3,-3.2739688E-3,5.49E-1,4E0,2.04E2,1.4232869E-2,8.8E1,6.1595E-3,2.083404E-2,6.777145E-3,1.984078E-2,1.8021634E-2,1.4427657E-3,-5.2813906E-3,6.1595E-3,-5.6012296E-3,6.1595E-3],"split_indices":[1,4,1,6,7,5,7,0,5,3,6,7,7,0,0,3,0,0,0,4,2,0,5,0,7,2,6,0,0,0,0,0,0,0,6,0,4,0,2,0,0,0,0,0,0,0,0,0,0],"split_type":[0,0,0,0,0,0,0,0,0,0,0,0,0,0,0,0,0,0,0,0,0,0,0,0,0,0,0,0,0,0,0,0,0,0,0,0,0,0,0,0,0,0,0,0,0,0,0,0,0],"sum_hessian":[9.5209404E1,6.1382065E1,3.3827343E1,3.9203873E1,2.2178192E1,2.3298302E1,1.052904E1,3.4947453E1,4.2564206E0,1.0305018E1,1.1873173E1,1.1425129E1,1.1873173E1,9.40893E0,1.1201106E0,3.360332E1,1.3441328E0,2.2402213E0,2.016199E0,7.1687083E0,3.1363099E0,1.3441328E0,1.052904E1,4.032398E0,7.39273E0,6.048598E0,5.8245754E0,3.1811144E1,1.7921771E0,1.1201106E0,6.048598E0,1.1201106E0,2.016199E0,1.1201106E0,9.40893E0,2.6882656E0,4.704465E0,2.2402213E0,3.8083763E0,1.1201106E0,4.704465E0,4.2564206E0,5.152509E0,1.5681549E0,1.1201106E0,3.5843542E0,1.1201106E0,2.6882656E0,1.1201106E0],"tree_param":{"num_deleted":"0","num_feature":"8","num_nodes":"49","size_leaf_vector":"1"}},{"base_weights":[6.377524E-4,-6.497012E-1,1.1596307E0,-1.0700787E0,1.047659E-1,6.027398E-1,2.2274191E0,-1.2129107E0,1.0634359E-1,-9.309127E-1,1.0012505E0,-1.8116729E-1,1.3096683E0,2.3420086E-2,6.120527E-3,-1.25926E0,-1.3972436E-4,-7.331785E-3,9.696644E-3,-1.1987591E0,-1.7821339E-1,-8.636716E-3,1.291952E0,-1.2060195E-2,4.525728E-1,5.424981E-1,1.9080318E0,-1.3066636E-2,-2.529931E-3,-3.258501E-3,-1.2914345E-2,6.1369054E-3,-6.7667775E-3,1.4980354E0,-3.3089237E-3,1.3262342E0,-1.9353975E-1,1.4089891E-2,-1.5645126E-1,6.120527E-3,2.0549115E-2,-1.4098367E-4,1.7228726E-2,1.7848575E-2,1.4347889E-3,-5.247135E-3,6.120527E-3,-5.5795237E-3,6.1502787E-3],"categories":[],"categories_nodes":[],"categories_segments":[],"categories_sizes":[],"default_left":[0,0,0,0,0,0,0,0,0,0,0,0,0,0,0,0,0,0,0,0,0,0,0,0,0,0,0,0,0,0,0,0,0,0,0,0,0,0,0,0,0,0,0,0,0,0,0,0,0],"id":1,"left_children":[1,3,5,7,9,11,13,15,17,19,21,23,25,-1,-1,27,-1,-1,-1,29,31,-1,33,-1,35,37,39,-1,-1,-1,-1,-1,-1,41,-1,43,45,-1,47,-1,-1,-1,-1,-1,-1,-1,-1,-1,-1],"loss_changes":[7.325207E1,1.9856604E1,1.942923E1,6.86158E0,2.2459785E1,1.3719631E1,7.142296E-1,1.9723816E0,4.5213804E0,2.059722E0,8.114838E0,8.609173E0,4.8931046E0,0E0,0E0,1.3134842E0,0E0,0E0,0E0,2.3785591E-1,2.0471466E0,0E0,4.365082E0,0E0,4.9974213E0,4.4938745E0,4.7733307E-2,0E0,0E0,0E0,0E0,0E0,0E0,3.5760918E0,0E0,1.7497473E0,1.8420119E0,0E0,1.8317283E0,0E0,0E0,0E0,0E0,0E0,0E0,0E0,0E0,0E0,0E0],"parents":[2147483647,0,0,1,1,2,2,3,3,4,4,5,5,6,6,7,7,8,8,9,9,10,10,11,11,12,12,15,15,19,19,20,20,22,22,24,24,25,25,26,26,33,33,35,35,36,36,38,38],"right_children":[2,4,6,8,10,12,14,16,18,20,22,24,26,-1,-1,28,-1,-1,-1,30,32,-1,34,-1,36,38,40,-1,-1,-1,-1,-1,-1,42,-1,44,46,-1,48,-1,-1,-1,-1,-1,-1,-1,-1,-1,-1],"split_conditions":[1.28E2,1.14E2,1.66E2,7.57E-1,2.9E1,3.4E1,5.8E1,1E1,3.27E1,3.5E1,1.92E-1,2.5E1,3.1E1,2.3420086E-2,6.120527E-3,4.2E1,-1.3972436E-4,-7.331785E-3,9.696644E-3,1.2E2,3.59E1,-8.636716E-3,5.3E1,-1.2060195E-2,3.5E1,7.2E1,2.87E-1,-1.3066636E-2,-2.529931E-3,-3.258501E-3,-1.2914345E-2,6.1369054E-3,-6.7667775E-3,6.2E1,-3.3089237E-3,4E0,2.04E2,1.4089891E-2,4.62E1,6.120527E-3,2.0549115E-2,-1.4098367E-4,1.7228726E-2,1.7848575E-2,1.4347889E-3,-5.247135E-3,6.120527E-3,-5.5795237E-3,6.1502787E-3],"split_indices":[1,4,1,6,7,5,7,0,5,3,6,7,7,0,0,3,0,0,0,4,5,0,7,0,7,2,6,0,0,0,0,0,0,2,0,0,4,0,5,0,0,0,0,0,0,0,0,0,0],"split_type":[0,0,0,0,0,0,0,0,0,0,0,0,0,0,0,0,0,0,0,0,0,0,0,0,0,0,0,0,0,0,0,0,0,0,0,0,0,0,0,0,0,0,0,0,0,0,0,0,0],"sum_hessian":[9.518546E1,6.1253864E1,3.3931595E1,3.9067646E1,2.218622E1,2.3329092E1,1.0602503E1,3.481024E1,4.257402E0,1.0276139E1,1.1910081E1,1.1414914E1,1.1914178E1,9.480176E0,1.1223274E0,3.346617E1,1.3440719E0,2.234878E0,2.0225239E0,7.1420445E0,3.1340947E0,1.340358E0,1.0569723E1,4.0165443E0,7.39837E0,6.0561457E0,5.858032E0,3.1675465E1,1.790705E0,1.1189265E0,6.023118E0,1.1213917E0,2.012703E0,9.446969E0,1.1227542E0,2.6978078E0,4.700562E0,2.2504208E0,3.8057246E0,1.1223274E0,4.735705E0,1.3441608E0,8.102808E0,1.5771766E0,1.1206312E0,3.5782347E0,1.1223274E0,2.6850953E0,1.1206293E0],"tree_param":{"num_deleted":"0","num_feature":"8","num_nodes":"49","size_leaf_vector":"1"}},{"base_weights":[1.161904E-3,-6.449563E-1,1.1469908E0,-1.0633829E0,1.0314795E-1,5.980076E-1,2.1942973E0,-1.2059027E0,1.0570343E-1,-9.2550004E-1,9.886493E-1,-1.7887259E-1,1.2957698E0,2.3057282E-2,6.0818586E-3,-1.2521677E0,-1.3892645E-4,-7.293269E-3,9.611934E-3,-1.1927155E0,-1.7668456E-1,-8.601263E-3,1.2755163E0,-1.2002047E-2,4.5014825E-1,5.385821E-1,1.8839239E0,-1.2994628E-2,-2.5150268E-3,-3.2431125E-3,-1.285084E-2,6.098109E-3,-6.7315376E-3,1.4784861E0,-3.293273E-3,1.3148676E0,-1.9158718E-1,1.3949464E-2,-1.5485793E-1,6.0818586E-3,2.027252E-2,-1.4017899E-4,1.6993467E-2,1.767897E-2,1.4268574E-3,-5.2131223E-3,6.0818586E-3,-5.5462336E-3,6.1113774E-3],"categories":[],"categories_nodes":[],"categories_segments":[],"categories_sizes":[],"default_left":[0,0,0,0,0,0,0,0,0,0,0,0,0,0,0,0,0,0,0,0,0,0,0,0,0,0,0,0,0,0,0,0,0,0,0,0,0,0,0,0,0,0,0,0,0,0,0,0,0],"id":2,"left_children":[1,3,5,7,9,11,13,15,17,19,21,23,25,-1,-1,27,-1,-1,-1,29,31,-1,33,-1,35,37,39,-1,-1,-1,-1,-1,-1,41,-1,43,45,-1,47,-1,-1,-1,-1,-1,-1,-1,-1,-1,-1],"loss_changes":[7.192866E1,1.9556751E1,1.8828995E1,6.7805634E0,2.2043257E1,1.3435724E1,6.607857E-1,1.949852E0,4.457307E0,2.0397387E0,7.964473E0,8.509271E0,4.754217E0,0E0,0E0,1.2978058E0,0E0,0E0,0E0,2.3417664E-1,2.0238657E0,0E0,4.2693787E0,0E0,4.915313E0,4.4105453E0,2.6939392E-2,0E0,0E0,0E0,0E0,0E0,0E0,3.4818802E0,0E0,1.7163286E0,1.8192878E0,0E0,1.8097395E0,0E0,0E0,0E0,0E0,0E0,0E0,0E0,0E0,0E0,0E0],"parents":[2147483647,0,0,1,1,2,2,3,3,4,4,5,5,6,6,7,7,8,8,9,9,10,10,11,11,12,12,15,15,19,19,20,20,22,22,24,24,25,25,26,26,33,33,35,35,36,36,38,38],"right_children":[2,4,6,8,10,12,14,16,18,20,22,24,26,-1,-1,28,-1,-1,-1,30,32,-1,34,-1,36,38,40,-1,-1,-1,-1,-1,-1,42,-1,44,46,-1,48,-1,-1,-1,-1,-1,-1,-1,-1,-1,-1],"split_conditions":[1.28E2,1.14E2,1.66E2,7.57E-1,2.9E1,3.4E1,5.8E1,1E1,3.27E1,3.5E1,1.92E-1,2.5E1,3.1E1,2.3057282E-2,6.0818586E-3,4.2E1,-1.3892645E-4,-7.293269E-3,9.611934E-3,1.2E2,3.59E1,-8.601263E-3,5.3E1,-1.2002047E-2,3.5E1,7.2E1,2.87E-1,-1.2994628E-2,-2.5150268E-3,-3.2431125E-3,-1.285084E-2,6.098109E-3,-6.7315376E-3,6.2E1,-3.293273E-3,4E0,2.04E2,1.3949464E-2,4.62E1,6.0818586E-3,2.027252E-2,-1.4017899E-4,1.6993467E-2,1.767897E-2,1.4268574E-3,-5.2131223E-3,6.0818586E-3,-5.5462336E-3,6.1113774E-3],"split_indices":[1,4,1,6,7,5,7,0,5,3,6,7,7,0,0,3,0,0,0,4,5,0,7,0,7,2,6,0,0,0,0,0,0,2,0,0,4,0,5,0,0,0,0,0,0,0,0,0,0],"split_type":[0,0,0,0,0,0,0,0,0,0,0,0,0,0,0,0,0,0,0,0,0,0,0,0,0,0,0,0,0,0,0,0,0,0,0,0,0,0,0,0,0,0,0,0,0,0,0,0,0],"sum_hessian":[9.5156906E1,6.112591E1,3.403099E1,3.8930202E1,2.2195711E1,2.3358036E1,1.0672955E1,3.467195E1,4.258248E0,1.0247024E1,1.1948688E1,1.1404287E1,1.195375E1,9.548439E0,1.1245154E0,3.332794E1,1.3440115E0,2.2295215E0,2.028726E0,7.1151676E0,3.1318562E0,1.3365644E0,1.06121235E1,4.0005684E0,7.4037185E0,6.0634274E0,5.8903217E0,3.1538704E1,1.7892374E0,1.1177437E0,5.997424E0,1.1235917E0,2.0082643E0,9.490557E0,1.1215669E0,2.7070818E0,4.6966367E0,2.2603607E0,3.8030667E0,1.1245154E0,4.7658067E0,1.3440998E0,8.146457E0,1.5859337E0,1.1211481E0,3.5721214E0,1.1245154E0,2.6802275E0,1.1228392E0],"tree_param":{"num_deleted":"0","num_feature":"8","num_nodes":"49","size_leaf_vector":"1"}},{"base_weights":[1.6710851E-3,-6.402831E-1,1.1346439E0,-1.0567744E0,1.0155047E-1,5.9334826E-1,2.162281E0,-1.1989896E0,1.0506385E-1,-9.2015076E-1,9.7631556E-1,-1.766139E-1,1.2821618E0,2.2707189E-2,6.0434924E-3,-1.2451748E0,-1.3813307E-4,-7.255041E-3,9.528321E-3,-1.1867523E0,-1.7517266E-1,-8.566105E-3,1.2594551E0,-1.1944657E-2,4.4774225E-1,5.34709E-1,1.8604568E0,-1.2923675E-2,-2.5002107E-3,-3.227805E-3,-1.2788266E-2,6.07572E-3,-6.704012E-3,1.4594103E0,-3.2777053E-3,1.3036845E0,-1.8965422E-1,1.3811529E-2,-1.5328169E-1,6.0434924E-3,2.0003885E-2,-1.3937808E-4,1.6764358E-2,1.7512722E-2,1.4189706E-3,-5.179346E-3,6.0434924E-3,-5.524825E-3,6.1021177E-3],"categories":[],"categories_nodes":[],"categories_segments":[],"categories_sizes":[],"default_left":[0,0,0,0,0,0,0,0,0,0,0,0,0,0,0,0,0,0,0,0,0,0,0,0,0,0,0,0,0,0,0,0,0,0,0,0,0,0,0,0,0,0,0,0,0,0,0,0,0],"id":3,"left_children":[1,3,5,7,9,11,13,15,17,19,21,23,25,-1,-1,27,-1,-1,-1,29,31,-1,33,-1,35,37,39,-1,-1,-1,-1,-1,-1,41,-1,43,45,-1,47,-1,-1,-1,-1,-1,-1,-1,-1,-1,-1],"loss_changes":[7.0636696E1,1.9261768E1,1.8255829E1,6.7007866E0,2.1636456E1,1.3159362E1,6.1110306E-1,1.9277687E0,4.3942714E0,2.0200806E0,7.8181725E0,8.410752E0,4.6209183E0,0E0,0E0,1.2825165E0,0E0,0E0,0E0,2.3062325E-1,2.008098E0,0E0,4.176737E0,0E0,4.834865E0,4.329136E0,7.6503754E-3,0E0,0E0,0E0,0E0,0E0,0E0,3.391241E0,0E0,1.6838741E0,1.796846E0,0E0,1.8002262E0,0E0,0E0,0E0,0E0,0E0,0E0,0E0,0E0,0E0,0E0],"parents":[2147483647,0,0,1,1,2,2,3,3,4,4,5,5,6,6,7,7,8,8,9,9,10,10,11,11,12,12,15,15,19,19,20,20,22,22,24,24,25,25,26,26,33,33,35,35,36,36,38,38],"right_children":[2,4,6,8,10,12,14,16,18,20,22,24,26,-1,-1,28,-1,-1,-1,30,32,-1,34,-1,36,38,40,-1,-1,-1,-1,-1,-1,42,-1,44,46,-1,48,-1,-1,-1,-1,-1,-1,-1,-1,-1,-1],"split_conditions":[1.28E2,1.14E2,1.66E2,7.57E-1,2.9E1,3.4E1,5.8E1,1E1,3.27E1,3.5E1,1.92E-1,2.5E1,3.1E1,2.2707189E-2,6.0434924E-3,4.2E1,-1.3813307E-4,-7.255041E-3,9.528321E-3,1.2E2,6.5E1,-8.566105E-3,5.3E1,-1.1944657E-2,3.5E1,7.2E1,2.87E-1,-1.2923675E-2,-2.5002107E-3,-3.227805E-3,-1.2788266E-2,6.07572E-3,-6.704012E-3,6.2E1,-3.2777053E-3,4E0,2.04E2,1.3811529E-2,8.8E1,6.0434924E-3,2.0003885E-2,-1.3937808E-4,1.6764358E-2,1.7512722E-2,1.4189706E-3,-5.179346E-3,6.0434924E-3,-5.524825E-3,6.1021177E-3],"split_indices":[1,4,1,6,7,5,7,0,5,3,6,7,7,0,0,3,0,0,0,4,2,0,7,0,7,2,6,0,0,0,0,0,0,2,0,0,4,0,2,0,0,0,0,0,0,0,0,0,0],"split_type":[0,0,0,0,0,0,0,0,0,0,0,0,0,0,0,0,0,0,0,0,0,0,0,0,0,0,0,0,0,0,0,0,0,0,0,0,0,0,0,0,0,0,0,0,0,0,0,0,0],"sum_hessian":[9.512072E1,6.0995113E1,3.4125603E1,3.879161E1,2.2203505E1,2.3385145E1,1.0740457E1,3.453265E1,4.2589617E0,1.0217669E1,1.1985835E1,1.1393257E1,1.1991889E1,9.613782E0,1.1266751E0,3.3188698E1,1.3439512E0,2.224153E0,2.0348084E0,7.088088E0,3.1295812E0,1.3327532E0,1.0653082E1,3.984477E0,7.4087796E0,6.070425E0,5.9214644E0,3.1400923E1,1.7877747E0,1.1165628E0,5.971525E0,1.1248393E0,2.0047417E0,9.5327015E0,1.1203809E0,2.71609E0,4.69269E0,2.2700438E0,3.800381E0,1.1266751E0,4.7947893E0,1.344039E0,8.188663E0,1.5944285E0,1.1216614E0,3.5660148E0,1.1266751E0,2.6770382E0,1.1233428E0],"tree_param":{"num_deleted":"0","num_feature":"8","num_nodes":"49","size_leaf_vector":"1"}},{"base_weights":[2.1663322E-3,-6.356793E-1,1.1225797E0,-1.050251E0,9.997343E-2,5.887604E-1,2.1313157E0,-1.192169E0,1.0442473E-1,-9.148615E-1,9.642406E-1,-1.7439045E-1,1.2688346E0,2.2369148E-2,6.005426E-3,-1.2382784E0,-1.3734473E-4,-7.217095E-3,9.445782E-3,-1.1808676E0,-1.7367497E-1,-8.531236E-3,1.2437555E0,-1.18880095E-2,4.453548E-1,5.30879E-1,1.8376052E-2,-1.28537435E-2,-2.4854834E-3,-3.2125767E-3,-1.27265975E-2,6.0374024E-3,-6.6692154E-3,1.4407903E0,-3.2622172E-3,1.2926806E0,-1.8774062E-1,1.3676013E-2,-1.5171789E-1,-1.3858295E-4,1.6541155E-2,1.7349748E-2,1.4111289E-3,-5.145805E-3,6.005426E-3,-5.491907E-3,6.063596E-3],"categories":[],"categories_nodes":[],"categories_segments":[],"categories_sizes":[],"default_left":[0,0,0,0,0,0,0,0,0,0,0,0,0,0,0,0,0,0,0,0,0,0,0,0,0,0,0,0,0,0,0,0,0,0,0,0,0,0,0,0,0,0,0,0,0,0,0],"id":4,"left_children":[1,3,5,7,9,11,13,15,17,19,21,23,25,-1,-1,27,-1,-1,-1,29,31,-1,33,-1,35,37,-1,-1,-1,-1,-1,-1,-1,39,-1,41,43,-1,45,-1,-1,-1,-1,-1,-1,-1,-1],"loss_changes":[6.937519E1,1.8971592E1,1.7708138E1,6.622223E0,2.1239065E1,1.289029E1,5.6490326E-1,1.906105E0,4.332253E0,2.000761E0,7.6757717E0,8.3136E0,4.4929333E0,0E0,0E0,1.267601E0,0E0,0E0,0E0,2.2719002E-1,1.9852853E0,0E0,4.087017E0,0E0,4.756041E0,4.249569E0,0E0,0E0,0E0,0E0,0E0,0E0,0E0,3.303999E0,0E0,1.652348E0,1.7746834E0,0E0,1.7786237E0,0E0,0E0,0E0,0E0,0E0,0E0,0E0,0E0],"parents":[2147483647,0,0,1,1,2,2,3,3,4,4,5,5,6,6,7,7,8,8,9,9,10,10,11,11,12,12,15,15,19,19,20,20,22,22,24,24,25,25,33,33,35,35,36,36,38,38],"right_children":[2,4,6,8,10,12,14,16,18,20,22,24,26,-1,-1,28,-1,-1,-1,30,32,-1,34,-1,36,38,-1,-1,-1,-1,-1,-1,-1,40,-1,42,44,-1,46,-1,-1,-1,-1,-1,-1,-1,-1],"split_conditions":[1.28E2,1.14E2,1.66E2,7.57E-1,2.9E1,3.4E1,5.8E1,1E1,3.27E1,3.5E1,1.92E-1,2.5E1,3.1E1,2.2369148E-2,6.005426E-3,4.2E1,-1.3734473E-4,-7.217095E-3,9.445782E-3,1.2E2,3.59E1,-8.531236E-3,5.3E1,-1.18880095E-2,3.5E1,7.2E1,1.8376052E-2,-1.28537435E-2,-2.4854834E-3,-3.2125767E-3,-1.27265975E-2,6.0374024E-3,-6.6692154E-3,6.2E1,-3.2622172E-3,4E0,2.04E2,1.3676013E-2,4.62E1,-1.3858295E-4,1.6541155E-2,1.7349748E-2,1.4111289E-3,-5.145805E-3,6.005426E-3,-5.491907E-3,6.063596E-3],"split_indices":[1,4,1,6,7,5,7,0,5,3,6,7,7,0,0,3,0,0,0,4,5,0,7,0,7,2,0,0,0,0,0,0,0,2,0,0,4,0,5,0,0,0,0,0,0,0,0],"split_type":[0,0,0,0,0,0,0,0,0,0,0,0,0,0,0,0,0,0,0,0,0,0,0,0,0,0,0,0,0,0,0,0,0,0,0,0,0,0,0,0,0,0,0,0,0,0,0],"sum_hessian":[9.507713E1,6.0861584E1,3.421555E1,3.8651928E1,2.2209654E1,2.3410475E1,1.0805075E1,3.4392384E1,4.259545E0,1.0188101E1,1.2021554E1,1.1381832E1,1.2028644E1,9.676268E0,1.1288066E0,3.3048492E1,1.3438914E0,2.2187736E0,2.0407712E0,7.0608163E0,3.1272843E0,1.3289248E0,1.0692629E1,3.9682755E0,7.413556E0,6.077163E0,5.9514804E0,3.1262175E1,1.7863168E0,1.1153831E0,5.945433E0,1.1269943E0,2.00029E0,9.573433E0,1.1191963E0,2.7248347E0,4.688721E0,2.2794738E0,3.7976892E0,1.3439786E0,8.229454E0,1.6026638E0,1.1221709E0,3.5599148E0,1.1288066E0,2.672172E0,1.125517E0],"tree_param":{"num_deleted":"0","num_feature":"8","num_nodes":"47","size_leaf_vector":"1"}},{"base_weights":[2.570623E-3,-6.311434E-1,1.1105014E0,-1.0438107E0,9.841612E-2,5.838807E-1,2.101349E0,-1.1854385E0,1.0378629E-1,-9.096326E-1,9.524156E-1,-1.7220153E-1,1.2549781E0,2.2042539E-2,5.967656E-3,-1.2314763E0,-1.3656089E-4,-7.1794274E-3,9.364295E-3,-1.1750592E0,-1.7219365E-1,-8.496652E-3,1.2284044E0,-1.18320845E-2,4.429857E-1,5.2709043E-1,1.8136479E0,-1.27848135E-2,-2.4708435E-3,-3.1974262E-3,-1.2665814E-2,6.0153436E-3,-6.6421186E-3,1.4226091E0,-3.246811E-3,1.2818524E0,-1.8584625E-1,1.35428505E-2,-1.5017071E-1,5.8900276E-3,1.950662E-2,-1.3779209E-4,1.6323617E-2,1.7189957E-2,1.4033307E-3,-5.1124967E-3,5.967656E-3,-5.470848E-3,6.054459E-3],"categories":[],"categories_nodes":[],"categories_segments":[],"categories_sizes":[],"default_left":[0,0,0,0,0,0,0,0,0,0,0,0,0,0,0,0,0,0,0,0,0,0,0,0,0,0,0,0,0,0,0,0,0,0,0,0,0,0,0,0,0,0,0,0,0,0,0,0,0],"id":5,"left_children":[1,3,5,7,9,11,13,15,17,19,21,23,25,-1,-1,27,-1,-1,-1,29,31,-1,33,-1,35,37,39,-1,-1,-1,-1,-1,-1,41,-1,43,45,-1,47,-1,-1,-1,-1,-1,-1,-1,-1,-1,-1],"loss_changes":[6.812376E1,1.8686108E1,1.719439E1,6.544857E0,2.0850819E1,1.26153E1,5.219078E-1,1.8848534E0,4.2712326E0,1.9817457E0,7.537122E0,8.217785E0,4.3575115E0,0E0,0E0,1.2530441E0,0E0,0E0,0E0,2.2387409E-1,1.9698672E0,0E0,4.0000954E0,0E0,4.6788015E0,4.17181E0,2.2731781E-2,0E0,0E0,0E0,0E0,0E0,0E0,3.2199764E0,0E0,1.6217217E0,1.7527963E0,0E0,1.7693135E0,0E0,0E0,0E0,0E0,0E0,0E0,0E0,0E0,0E0,0E0],"parents":[2147483647,0,0,1,1,2,2,3,3,4,4,5,5,6,6,7,7,8,8,9,9,10,10,11,11,12,12,15,15,19,19,20,20,22,22,24,24,25,25,26,26,33,33,35,35,36,36,38,38],"right_children":[2,4,6,8,10,12,14,16,18,20,22,24,26,-1,-1,28,-1,-1,-1,30,32,-1,34,-1,36,38,40,-1,-1,-1,-1,-1,-1,42,-1,44,46,-1,48,-1,-1,-1,-1,-1,-1,-1,-1,-1,-1],"split_conditions":[1.28E2,1.14E2,1.66E2,7.57E-1,2.9E1,3.4E1,5.8E1,1E1,3.27E1,3.5E1,1.92E-1,2.5E1,3.1E1,2.2042539E-2,5.967656E-3,4.2E1,-1.3656089E-4,-7.1794274E-3,9.364295E-3,1.2E2,6.5E1,-8.496652E-3,5.3E1,-1.18320845E-2,3.5E1,7.2E1,2.87E-1,-1.27848135E-2,-2.4708435E-3,-3.1974262E-3,-1.2665814E-2,6.0153436E-3,-6.6421186E-3,6.2E1,-3.246811E-3,4E0,2.04E2,1.35428505E-2,8.8E1,5.8900276E-3,1.950662E-2,-1.3779209E-4,1.6323617E-2,1.7189957E-2,1.4033307E-3,-5.1124967E-3,5.967656E-3,-5.470848E-3,6.054459E-3],"split_indices":[1,4,1,6,7,5,7,0,5,3,6,7,7,0,0,3,0,0,0,4,2,0,7,0,7,2,6,0,0,0,0,0,0,2,0,0,4,0,2,0,0,0,0,0,0,0,0,0,0],"split_type":[0,0,0,0,0,0,0,0,0,0,0,0,0,0,0,0,0,0,0,0,0,0,0,0,0,0,0,0,0,0,0,0,0,0,0,0,0,0,0,0,0,0,0,0,0,0,0,0,0],"sum_hessian":[9.5028755E1,6.0725395E1,3.430336E1,3.851121E1,2.2214186E1,2.3436491E1,1.0866869E1,3.425121E1,4.26E0,1.0158314E1,1.2055872E1,1.1370021E1,1.206647E1,9.735959E0,1.13091E0,3.290738E1,1.3438318E0,2.213384E0,2.0466166E0,7.0333614E0,3.1249526E0,1.3250802E0,1.0730792E1,3.9519696E0,7.418051E0,6.083625E0,5.982845E0,3.1122515E1,1.7848637E0,1.1142054E0,5.919156E0,1.1282021E0,1.9967505E0,9.612779E0,1.1180134E0,2.7333179E0,4.684733E0,2.288654E0,3.794971E0,1.1351972E0,4.8476477E0,1.3439184E0,8.26886E0,1.610641E0,1.122677E0,3.5538228E0,1.13091E0,2.6689744E0,1.1259966E0],"tree_param":{"num_deleted":"0","num_feature":"8","num_nodes":"49","size_leaf_vector":"1"}},{"base_weights":[3.0389805E-3,-6.266732E-1,1.098974E0,-1.0374513E0,9.687813E-2,5.794312E-1,2.072333E0,-1.1787955E0,1.0314849E-1,-9.044613E-1,9.408321E-1,-1.7004637E-1,1.2421902E0,2.172679E-2,5.930179E-3,-1.2247659E0,-1.3578156E-4,-7.1420358E-3,9.283841E-3,-1.1693257E0,-1.7072624E-1,-8.462349E-3,1.2133892E0,-1.1776869E-2,4.406349E-1,5.233437E-1,1.7919672E0,-1.2716853E-2,-2.456292E-3,-3.1823548E-3,-1.2605893E-2,5.977497E-3,-6.6077528E-3,-3.2404356E-3,1.4051405E0,1.2711958E0,-1.8397084E-1,1.34119885E-2,-1.4863588E-1,5.8531505E-3,1.925944E-2,6.135733E-3,1.8527642E-2,1.7033264E-2,1.395577E-3,-8.591703E-3,2.2122017E-3,-5.4382947E-3,6.016309E-3],"categories":[],"categories_nodes":[],"categories_segments":[],"categories_sizes":[],"default_left":[0,0,0,0,0,0,0,0,0,0,0,0,0,0,0,0,0,0,0,0,0,0,0,0,0,0,0,0,0,0,0,0,0,0,0,0,0,0,0,0,0,0,0,0,0,0,0,0,0],"id":6,"left_children":[1,3,5,7,9,11,13,15,17,19,21,23,25,-1,-1,27,-1,-1,-1,29,31,-1,33,-1,35,37,39,-1,-1,-1,-1,-1,-1,-1,41,43,45,-1,47,-1,-1,-1,-1,-1,-1,-1,-1,-1,-1],"loss_changes":[6.69205E1,1.8405237E1,1.6693104E1,6.4686356E0,2.0471401E1,1.2360255E1,4.818802E-1,1.864006E0,4.2111907E0,1.9630499E0,7.4020863E0,8.123287E0,4.23958E0,0E0,0E0,1.238842E0,0E0,0E0,0E0,2.2066975E-1,1.9475118E0,0E0,3.9244728E0,0E0,4.603109E0,4.095795E0,6.088257E-3,0E0,0E0,0E0,0E0,0E0,0E0,0E0,2.6367702E0,1.59196E0,1.7442257E0,0E0,1.7480891E0,0E0,0E0,0E0,0E0,0E0,0E0,0E0,0E0,0E0,0E0],"parents":[2147483647,0,0,1,1,2,2,3,3,4,4,5,5,6,6,7,7,8,8,9,9,10,10,11,11,12,12,15,15,19,19,20,20,22,22,24,24,25,25,26,26,34,34,35,35,36,36,38,38],"right_children":[2,4,6,8,10,12,14,16,18,20,22,24,26,-1,-1,28,-1,-1,-1,30,32,-1,34,-1,36,38,40,-1,-1,-1,-1,-1,-1,-1,42,44,46,-1,48,-1,-1,-1,-1,-1,-1,-1,-1,-1,-1],"split_conditions":[1.28E2,1.14E2,1.66E2,7.57E-1,2.9E1,3.4E1,5.8E1,1E1,3.27E1,3.5E1,1.92E-1,2.5E1,3.1E1,2.172679E-2,5.930179E-3,4.2E1,-1.3578156E-4,-7.1420358E-3,9.283841E-3,1.2E2,6.5E1,-8.462349E-3,2.72E1,-1.1776869E-2,3.5E1,7.2E1,2.87E-1,-1.2716853E-2,-2.456292E-3,-3.1823548E-3,-1.2605893E-2,5.977497E-3,-6.6077528E-3,-3.2404356E-3,5.49E-1,4E0,4.1E1,1.34119885E-2,8.8E1,5.8531505E-3,1.925944E-2,6.135733E-3,1.8527642E-2,1.7033264E-2,1.395577E-3,-8.591703E-3,2.2122017E-3,-5.4382947E-3,6.016309E-3],"split_indices":[1,4,1,6,7,5,7,0,5,3,6,7,7,0,0,3,0,0,0,4,2,0,5,0,7,2,6,0,0,0,0,0,0,0,6,0,7,0,2,0,0,0,0,0,0,0,0,0,0],"split_type":[0,0,0,0,0,0,0,0,0,0,0,0,0,0,0,0,0,0,0,0,0,0,0,0,0,0,0,0,0,0,0,0,0,0,0,0,0,0,0,0,0,0,0,0,0,0,0,0,0],"sum_hessian":[9.4970924E1,6.0586674E1,3.4384254E1,3.836952E1,2.2217155E1,2.3458351E1,1.0925902E1,3.4109184E1,4.2603307E0,1.0128334E1,1.208882E1,1.1357832E1,1.2100519E1,9.792916E0,1.1329858E0,3.2765415E1,1.3437726E0,2.2079847E0,2.0523458E0,7.005735E0,3.1225996E0,1.3212199E0,1.0767601E1,3.9355645E0,7.4222674E0,6.089834E0,6.0106845E0,3.0981998E1,1.7834154E0,1.1130292E0,5.8927054E0,1.1303124E0,1.9922873E0,1.1175267E0,9.650074E0,2.7415423E0,4.6807256E0,2.297587E0,3.7922475E0,1.1372163E0,4.873468E0,4.3421874E0,5.307887E0,1.6183628E0,1.1231794E0,1.3352658E0,3.3454597E0,2.6641119E0,1.1281356E0],"tree_param":{"num_deleted":"0","num_feature":"8","num_nodes":"49","size_leaf_vector":"1"}},{"base_weights":[3.5097888E-3,-6.221463E-1,1.0874159E0,-1.0311707E0,9.5742024E-2,5.7469064E-1,2.0442226E0,-1.1722379E0,1.0251153E-1,-8.99348E-1,9.302883E-1,-1.6847372E-1,1.2296579E0,2.1421364E-2,5.89299E-3,-1.2181448E0,-1.3500678E-4,-7.104916E-3,9.204402E-3,-1.1636654E0,-1.692749E-1,-8.428322E-3,1.1996405E0,-1.1722346E-2,4.3730783E-1,5.196371E-1,1.7708322E-2,-1.2649839E-2,-2.4418267E-3,-3.1673613E-3,-1.2546817E-2,5.9556407E-3,-6.581019E-3,1.3900867E0,-3.2634756E-3,1.2607076E0,-1.833024E-1,1.3283359E-2,-1.4711729E-1,-1.3640602E-4,1.5935518E-2,1.6879596E-2,1.3878656E-3,-5.071938E-3,5.9298514E-3,-5.4175192E-3,6.0071438E-3],"categories":[],"categories_nodes":[],"categories_segments":[],"categories_sizes":[],"default_left":[0,0,0,0,0,0,0,0,0,0,0,0,0,0,0,0,0,0,0,0,0,0,0,0,0,0,0,0,0,0,0,0,0,0,0,0,0,0,0,0,0,0,0,0,0,0,0],"id":7,"left_children":[1,3,5,7,9,11,13,15,17,19,21,23,25,-1,-1,27,-1,-1,-1,29,31,-1,33,-1,35,37,-1,-1,-1,-1,-1,-1,-1,39,-1,41,43,-1,45,-1,-1,-1,-1,-1,-1,-1,-1],"loss_changes":[6.5715996E1,1.8140604E1,1.622279E1,6.393547E0,2.0116823E1,1.212332E1,4.4459152E-1,1.8435555E0,4.1521096E0,1.944643E0,7.276371E0,8.020895E0,4.12619E0,0E0,0E0,1.2249641E0,0E0,0E0,0E0,2.1757221E-1,1.9323823E0,0E0,3.8832626E0,0E0,4.538318E0,4.021488E0,0E0,0E0,0E0,0E0,0E0,0E0,0E0,3.0725632E0,0E0,1.563035E0,1.72873E0,0E0,1.7389164E0,0E0,0E0,0E0,0E0,0E0,0E0,0E0,0E0],"parents":[2147483647,0,0,1,1,2,2,3,3,4,4,5,5,6,6,7,7,8,8,9,9,10,10,11,11,12,12,15,15,19,19,20,20,22,22,24,24,25,25,33,33,35,35,36,36,38,38],"right_children":[2,4,6,8,10,12,14,16,18,20,22,24,26,-1,-1,28,-1,-1,-1,30,32,-1,34,-1,36,38,-1,-1,-1,-1,-1,-1,-1,40,-1,42,44,-1,46,-1,-1,-1,-1,-1,-1,-1,-1],"split_conditions":[1.28E2,1.14E2,1.66E2,7.57E-1,2.9E1,3.4E1,5.8E1,1E1,3.27E1,3.5E1,1.92E-1,2.5E1,3.1E1,2.1421364E-2,5.89299E-3,4.2E1,-1.3500678E-4,-7.104916E-3,9.204402E-3,1.2E2,3.59E1,-8.428322E-3,5.3E1,-1.1722346E-2,3.5E1,7.2E1,1.7708322E-2,-1.2649839E-2,-2.4418267E-3,-3.1673613E-3,-1.2546817E-2,5.9556407E-3,-6.581019E-3,6.2E1,-3.2634756E-3,4E0,2.04E2,1.3283359E-2,4.62E1,-1.3640602E-4,1.5935518E-2,1.6879596E-2,1.3878656E-3,-5.071938E-3,5.9298514E-3,-5.4175192E-3,6.0071438E-3],"split_indices":[1,4,1,6,7,5,7,0,5,3,6,7,7,0,0,3,0,0,0,4,5,0,7,0,7,2,0,0,0,0,0,0,0,2,0,0,4,0,5,0,0,0,0,0,0,0,0],"split_type":[0,0,0,0,0,0,0,0,0,0,0,0,0,0,0,0,0,0,0,0,0,0,0,0,0,0,0,0,0,0,0,0,0,0,0,0,0,0,0,0,0,0,0,0,0,0,0],"sum_hessian":[9.4906845E1,6.0443466E1,3.4463375E1,3.82269E1,2.221657E1,2.348114E1,1.0982235E1,3.3966362E1,4.260537E0,1.0098157E1,1.2118413E1,1.134791E1,1.2133231E1,9.8472E0,1.1350344E0,3.2622646E1,1.3437136E0,2.2025769E0,2.0579605E0,6.9779434E0,3.1202137E0,1.3173449E0,1.0801068E1,3.919065E0,7.4288454E0,6.095775E0,6.0374556E0,3.0840675E1,1.781972E0,1.1118548E0,5.8660884E0,1.1314877E0,1.9887259E0,9.681817E0,1.1192508E0,2.74951E0,4.679335E0,2.3062766E0,3.7894986E0,1.3437946E0,8.338023E0,1.6258317E0,1.1236782E0,3.5463352E0,1.133E0,2.6608984E0,1.1286002E0],"tree_param":{"num_deleted":"0","num_feature":"8","num_nodes":"47","size_leaf_vector":"1"}},{"base_weights":[3.8781853E-3,-6.1780244E-1,1.0761182E0,-1.024967E0,9.42359E-2,5.700293E-1,2.0169752E0,-1.1657634E0,1.01875395E-1,-8.942897E-1,9.1913986E-1,-1.6637784E-1,1.2166121E0,2.1125752E-2,5.85609E-3,-1.2116107E0,-1.3423648E-4,-7.068064E-3,9.125957E-3,-1.1580763E0,-1.6783701E-1,-8.394569E-3,1.1852303E0,-1.1668499E-2,4.3500346E-1,5.1597095E-1,1.7486268E0,-1.2583747E-2,-2.4274464E-3,-3.1524454E-3,-1.2488563E-2,5.918259E-3,-6.5470748E-3,1.3730683E0,-3.2480618E-3,1.2503836E0,-1.8145071E-1,1.3156909E-2,-1.456108E-1,5.7061617E-3,1.8801015E-2,-1.3562756E-4,1.5732925E-2,1.6728861E-2,1.3801983E-3,-8.54384E-3,2.211292E-3,-5.3853244E-3,5.9693633E-3],"categories":[],"categories_nodes":[],"categories_segments":[],"categories_sizes":[],"default_left":[0,0,0,0,0,0,0,0,0,0,0,0,0,0,0,0,0,0,0,0,0,0,0,0,0,0,0,0,0,0,0,0,0,0,0,0,0,0,0,0,0,0,0,0,0,0,0,0,0],"id":8,"left_children":[1,3,5,7,9,11,13,15,17,19,21,23,25,-1,-1,27,-1,-1,-1,29,31,-1,33,-1,35,37,39,-1,-1,-1,-1,-1,-1,41,-1,43,45,-1,47,-1,-1,-1,-1,-1,-1,-1,-1,-1,-1],"loss_changes":[6.45496E1,1.7868515E1,1.5771915E1,6.319565E0,1.9753769E1,1.1869011E1,4.0983963E-1,1.8234749E0,4.0939713E0,1.9265394E0,7.147917E0,7.9291306E0,4.005781E0,0E0,0E0,1.2114067E0,0E0,0E0,0E0,2.1457672E-1,1.9104748E0,0E0,3.803011E0,0E0,4.46545E0,3.9488254E0,2.1484375E-2,0E0,0E0,0E0,0E0,0E0,0E0,2.9968777E0,0E0,1.5349159E0,1.7264245E0,0E0,1.7180638E0,0E0,0E0,0E0,0E0,0E0,0E0,0E0,0E0,0E0,0E0],"parents":[2147483647,0,0,1,1,2,2,3,3,4,4,5,5,6,6,7,7,8,8,9,9,10,10,11,11,12,12,15,15,19,19,20,20,22,22,24,24,25,25,26,26,33,33,35,35,36,36,38,38],"right_children":[2,4,6,8,10,12,14,16,18,20,22,24,26,-1,-1,28,-1,-1,-1,30,32,-1,34,-1,36,38,40,-1,-1,-1,-1,-1,-1,42,-1,44,46,-1,48,-1,-1,-1,-1,-1,-1,-1,-1,-1,-1],"split_conditions":[1.28E2,1.14E2,1.66E2,7.57E-1,2.9E1,3.4E1,5.8E1,1E1,3.27E1,3.5E1,1.92E-1,2.5E1,3.1E1,2.1125752E-2,5.85609E-3,4.2E1,-1.3423648E-4,-7.068064E-3,9.125957E-3,1.2E2,6.5E1,-8.394569E-3,5.3E1,-1.1668499E-2,3.5E1,7.2E1,2.87E-1,-1.2583747E-2,-2.4274464E-3,-3.1524454E-3,-1.2488563E-2,5.918259E-3,-6.5470748E-3,6.2E1,-3.2480618E-3,4E0,4.1E1,1.3156909E-2,8.8E1,5.7061617E-3,1.8801015E-2,-1.3562756E-4,1.5732925E-2,1.6728861E-2,1.3801983E-3,-8.54384E-3,2.211292E-3,-5.3853244E-3,5.9693633E-3],"split_indices":[1,4,1,6,7,5,7,0,5,3,6,7,7,0,0,3,0,0,0,4,2,0,7,0,7,2,6,0,0,0,0,0,0,2,0,0,7,0,2,0,0,0,0,0,0,0,0,0,0],"split_type":[0,0,0,0,0,0,0,0,0,0,0,0,0,0,0,0,0,0,0,0,0,0,0,0,0,0,0,0,0,0,0,0,0,0,0,0,0,0,0,0,0,0,0,0,0,0,0,0,0],"sum_hessian":[9.483805E1,6.0300106E1,3.4537945E1,3.808341E1,2.2216698E1,2.350202E1,1.1035926E1,3.3822784E1,4.260623E0,1.0067805E1,1.2148891E1,1.13350115E1,1.2167008E1,9.89887E0,1.1370559E0,3.247913E1,1.3436552E0,2.1971612E0,2.0634618E0,6.9499974E0,3.1178079E0,1.3134558E0,1.0835436E1,3.9024768E0,7.4325347E0,6.1014705E0,6.065538E0,3.0698597E1,1.7805336E0,1.1106822E0,5.8393154E0,1.1335541E0,1.9842536E0,9.717368E0,1.1180677E0,2.7572236E0,4.675311E0,2.3147256E0,3.7867448E0,1.1451484E0,4.9203897E0,1.3437356E0,8.373632E0,1.63305E0,1.1241736E0,1.3299533E0,3.345358E0,2.656041E0,1.1307042E0],"tree_param":{"num_deleted":"0","num_feature":"8","num_nodes":"49","size_leaf_vector":"1"}},{"base_weights":[4.234112E-3,-6.1351985E-1,1.0650508E0,-1.0188383E0,9.274779E-2,5.6542486E-1,1.9905506E0,-1.1593702E0,1.0124013E-1,-8.89287E-1,9.082111E-1,-1.648615E-1,1.2045708E0,2.0839488E-2,5.819473E-3,-1.2051613E0,-1.334697E-4,-7.0314757E-3,9.048487E-3,-1.1525568E0,-1.664149E-1,-8.361085E-3,1.1711239E0,-1.16153145E-2,4.317311E-1,5.0929207E-2,1.468325E0,-1.2518552E-2,-2.4131534E-3,-3.1376055E-3,-1.2431113E-2,5.8967234E-3,-6.5207505E-3,1.3564299E0,-3.2327287E-3,1.2402207E0,-1.8080033E-1,5.8741593E-3,-4.565705E-3,6.2964666E-1,1.8492242E-2,-1.3485338E-4,1.5535193E-2,1.658099E-2,1.372575E-3,-8.509155E-3,2.19304E-3,1.5221431E-2,-5.1552773E-4],"categories":[],"categories_nodes":[],"categories_segments":[],"categories_sizes":[],"default_left":[0,0,0,0,0,0,0,0,0,0,0,0,0,0,0,0,0,0,0,0,0,0,0,0,0,0,0,0,0,0,0,0,0,0,0,0,0,0,0,0,0,0,0,0,0,0,0,0,0],"id":9,"left_children":[1,3,5,7,9,11,13,15,17,19,21,23,25,-1,-1,27,-1,-1,-1,29,31,-1,33,-1,35,37,39,-1,-1,-1,-1,-1,-1,41,-1,43,45,-1,-1,47,-1,-1,-1,-1,-1,-1,-1,-1,-1],"loss_changes":[6.3409218E1,1.7600773E1,1.5340027E1,6.246647E0,1.9398829E1,1.1644251E1,3.7743378E-1,1.8037643E0,4.0367556E0,1.9087067E0,7.022707E0,7.8296223E0,3.9408207E0,0E0,0E0,1.1981697E0,0E0,0E0,0E0,2.1168327E-1,1.8956804E0,0E0,3.7251396E0,0E0,4.4032316E0,1.2188729E0,2.255518E0,0E0,0E0,0E0,0E0,0E0,0E0,2.9238434E0,0E0,1.5075741E0,1.7078717E0,0E0,0E0,3.033083E0,0E0,0E0,0E0,0E0,0E0,0E0,0E0,0E0,0E0],"parents":[2147483647,0,0,1,1,2,2,3,3,4,4,5,5,6,6,7,7,8,8,9,9,10,10,11,11,12,12,15,15,19,19,20,20,22,22,24,24,25,25,26,26,33,33,35,35,36,36,39,39],"right_children":[2,4,6,8,10,12,14,16,18,20,22,24,26,-1,-1,28,-1,-1,-1,30,32,-1,34,-1,36,38,40,-1,-1,-1,-1,-1,-1,42,-1,44,46,-1,-1,48,-1,-1,-1,-1,-1,-1,-1,-1,-1],"split_conditions":[1.28E2,1.14E2,1.66E2,7.57E-1,2.9E1,3.4E1,5.8E1,1E1,3.27E1,3.5E1,1.92E-1,2.5E1,2.85E-1,2.0839488E-2,5.819473E-3,4.2E1,-1.334697E-4,-7.0314757E-3,9.048487E-3,1.2E2,3.59E1,-8.361085E-3,5.3E1,-1.16153145E-2,3.5E1,2.44E-1,2.9E1,-1.2518552E-2,-2.4131534E-3,-3.1376055E-3,-1.2431113E-2,5.8967234E-3,-6.5207505E-3,6.2E1,-3.2327287E-3,4E0,4.1E1,5.8741593E-3,-4.565705E-3,3.75E-1,1.8492242E-2,-1.3485338E-4,1.5535193E-2,1.658099E-2,1.372575E-3,-8.509155E-3,2.19304E-3,1.5221431E-2,-5.1552773E-4],"split_indices":[1,4,1,6,7,5,7,0,5,3,6,7,6,0,0,3,0,0,0,4,5,0,7,0,7,6,7,0,0,0,0,0,0,2,0,0,7,0,0,6,0,0,0,0,0,0,0,0,0],"split_type":[0,0,0,0,0,0,0,0,0,0,0,0,0,0,0,0,0,0,0,0,0,0,0,0,0,0,0,0,0,0,0,0,0,0,0,0,0,0,0,0,0,0,0,0,0,0,0,0,0],"sum_hessian":[9.476303E1,6.0154453E1,3.4608574E1,3.79391E1,2.2215357E1,2.3521542E1,1.1087035E1,3.367851E1,4.2605906E0,1.0037276E1,1.2178081E1,1.1324388E1,1.2197153E1,9.947985E0,1.1390502E0,3.233491E1,1.3435969E0,2.1917388E0,2.0688515E0,6.9219065E0,3.1153698E0,1.309553E0,1.0868527E1,3.8858044E0,7.438583E0,2.4917068E0,9.705446E0,3.055581E1,1.7791001E0,1.1095115E0,5.812395E0,1.1346903E0,1.9806795E0,9.751641E0,1.1168863E0,2.7646859E0,4.673897E0,1.1347123E0,1.3569946E0,3.8598142E0,5.8456326E0,1.3436767E0,8.407965E0,1.6400204E0,1.1246656E0,1.3261158E0,3.3477812E0,1.1364074E0,2.7234068E0],"tree_param":{"num_deleted":"0","num_feature":"8","num_nodes":"49","size_leaf_vector":"1"}},{"base_weights":[4.544079E-3,-6.092965E-1,1.0540413E0,-1.0127826E0,9.127751E-2,5.6068665E-1,1.9649115E0,-1.1530557E0,1.0060589E-1,-8.8433695E-1,8.97495E-1,-1.6337076E-1,1.1922557E0,2.0562124E-2,5.7831374E-3,-1.1987945E0,-1.3270797E-4,-6.995149E-3,8.971976E-3,-1.1471055E0,-1.6500579E-1,-8.327866E-3,1.1573111E0,-1.1562779E-2,4.284916E-1,5.079043E-2,1.4524305E0,-1.2454231E-2,-2.3989433E-3,-3.122842E-3,-1.2374449E-2,5.859799E-3,-6.4872173E-3,1.340158E0,-3.2174757E-3,1.2302153E0,-1.801551E-1,5.8374456E-3,-4.5431205E-3,1.6100904E0,7.9142087E-4,-1.3408385E-4,1.5342133E-2,1.6435906E-2,1.3649939E-3,-5.0246525E-3,5.8919215E-3,8.429484E-3,1.8985637E-2],"categories":[],"categories_nodes":[],"categories_segments":[],"categories_sizes":[],"default_left":[0,0,0,0,0,0,0,0,0,0,0,0,0,0,0,0,0,0,0,0,0,0,0,0,0,0,0,0,0,0,0,0,0,0,0,0,0,0,0,0,0,0,0,0,0,0,0,0,0],"id":10,"left_children":[1,3,5,7,9,11,13,15,17,19,21,23,25,-1,-1,27,-1,-1,-1,29,31,-1,33,-1,35,37,39,-1,-1,-1,-1,-1,-1,41,-1,43,45,-1,-1,47,-1,-1,-1,-1,-1,-1,-1,-1,-1],"loss_changes":[6.2284443E1,1.73373E1,1.4931278E1,6.174797E0,1.905173E1,1.1417746E1,3.4720612E-1,1.7844048E0,3.9804485E0,1.8911619E0,6.9006176E0,7.731597E0,3.8549328E0,0E0,0E0,1.1852341E0,0E0,0E0,0E0,2.088852E-1,1.8742104E0,0E0,3.6495447E0,0E0,4.342185E0,1.2051806E0,2.197279E0,0E0,0E0,0E0,0E0,0E0,0E0,2.853344E0,0E0,1.4809842E0,1.7026353E0,0E0,0E0,5.19577E-1,0E0,0E0,0E0,0E0,0E0,0E0,0E0,0E0,0E0],"parents":[2147483647,0,0,1,1,2,2,3,3,4,4,5,5,6,6,7,7,8,8,9,9,10,10,11,11,12,12,15,15,19,19,20,20,22,22,24,24,25,25,26,26,33,33,35,35,36,36,39,39],"right_children":[2,4,6,8,10,12,14,16,18,20,22,24,26,-1,-1,28,-1,-1,-1,30,32,-1,34,-1,36,38,40,-1,-1,-1,-1,-1,-1,42,-1,44,46,-1,-1,48,-1,-1,-1,-1,-1,-1,-1,-1,-1],"split_conditions":[1.28E2,1.14E2,1.66E2,7.57E-1,2.9E1,3.4E1,5.8E1,1E1,3.27E1,3.5E1,1.92E-1,2.5E1,2.85E-1,2.0562124E-2,5.7831374E-3,4.2E1,-1.3270797E-4,-6.995149E-3,8.971976E-3,1.2E2,3.59E1,-8.327866E-3,5.3E1,-1.1562779E-2,3.5E1,2.44E-1,2.72E2,-1.2454231E-2,-2.3989433E-3,-3.122842E-3,-1.2374449E-2,5.859799E-3,-6.4872173E-3,6.2E1,-3.2174757E-3,4E0,2.04E2,5.8374456E-3,-4.5431205E-3,2.9E1,7.9142087E-4,-1.3408385E-4,1.5342133E-2,1.6435906E-2,1.3649939E-3,-5.0246525E-3,5.8919215E-3,8.429484E-3,1.8985637E-2],"split_indices":[1,4,1,6,7,5,7,0,5,3,6,7,6,0,0,3,0,0,0,4,5,0,7,0,7,6,4,0,0,0,0,0,0,2,0,0,4,0,0,7,0,0,0,0,0,0,0,0,0],"split_type":[0,0,0,0,0,0,0,0,0,0,0,0,0,0,0,0,0,0,0,0,0,0,0,0,0,0,0,0,0,0,0,0,0,0,0,0,0,0,0,0,0,0,0,0,0,0,0,0,0],"sum_hessian":[9.4684456E1,6.000662E1,3.467784E1,3.7794018E1,2.2212599E1,2.354222E1,1.1135621E1,3.3533577E1,4.2604413E0,1.0006593E1,1.2206007E1,1.1313394E1,1.2228826E1,9.994603E0,1.141018E0,3.219004E1,1.343539E0,2.1863103E0,2.074131E0,6.893679E0,3.1129131E0,1.3056375E0,1.090037E1,3.8690524E0,7.444341E0,2.4917934E0,9.737033E0,3.0412367E1,1.7776716E0,1.1083425E0,5.7853365E0,1.1367134E0,1.9761999E0,9.784663E0,1.1157064E0,2.7718995E0,4.6724415E0,1.1367097E0,1.3550837E0,8.579618E0,1.1574141E0,1.3436182E0,8.441045E0,1.6467454E0,1.125154E0,3.5373845E0,1.1350571E0,3.4164078E0,5.1632104E0],"tree_param":{"num_deleted":"0","num_feature":"8","num_nodes":"49","size_leaf_vector":"1"}},{"base_weights":[4.870681E-3,-6.051312E-1,1.0433499E0,-1.006798E0,8.982443E-2,5.5613375E-1,1.9400223E0,-1.1468179E0,9.997255E-2,-8.794403E-1,8.8698465E-1,-1.6135614E-1,1.1796528E0,2.0293249E-2,5.747079E-3,-1.192508E0,-1.3195023E-4,-6.959079E-3,8.896402E-3,-1.1417205E0,-1.6361223E-1,-8.294908E-3,1.1437818E0,-1.1510875E-2,4.2626056E-1,5.002139E-1,1.6934272E-2,-1.239076E-2,-2.3848196E-3,-3.1081538E-3,-1.231855E-2,5.838459E-3,-6.4612357E-3,-3.2109714E-3,1.3245147E0,1.220364E0,-1.7833132E-1,1.29088E-2,-1.529195E-1,5.6592636E-3,1.756693E-2,1.6293537E-2,1.3574559E-3,-8.462282E-3,2.192047E-3,-5.4323548E-3,5.8822813E-3],"categories":[],"categories_nodes":[],"categories_segments":[],"categories_sizes":[],"default_left":[0,0,0,0,0,0,0,0,0,0,0,0,0,0,0,0,0,0,0,0,0,0,0,0,0,0,0,0,0,0,0,0,0,0,0,0,0,0,0,0,0,0,0,0,0,0,0],"id":11,"left_children":[1,3,5,7,9,11,13,15,17,19,21,23,25,-1,-1,27,-1,-1,-1,29,31,-1,33,-1,35,37,-1,-1,-1,-1,-1,-1,-1,-1,39,41,43,-1,45,-1,-1,-1,-1,-1,-1,-1,-1],"loss_changes":[6.1190952E1,1.7078005E1,1.4536022E1,6.1039658E0,1.8712273E1,1.1178045E1,3.1900406E-1,1.7653999E0,3.9250295E0,1.8738699E0,6.7815447E0,7.643839E0,3.782133E0,0E0,0E0,1.1725807E0,0E0,0E0,0E0,2.0618057E-1,1.8596909E0,0E0,3.5840483E0,0E0,4.273236E0,3.8790164E0,0E0,0E0,0E0,0E0,0E0,0E0,0E0,0E0,2.5517426E0,1.4551191E0,1.6905328E0,0E0,1.7075967E0,0E0,0E0,0E0,0E0,0E0,0E0,0E0,0E0],"parents":[2147483647,0,0,1,1,2,2,3,3,4,4,5,5,6,6,7,7,8,8,9,9,10,10,11,11,12,12,15,15,19,19,20,20,22,22,24,24,25,25,34,34,35,35,36,36,38,38],"right_children":[2,4,6,8,10,12,14,16,18,20,22,24,26,-1,-1,28,-1,-1,-1,30,32,-1,34,-1,36,38,-1,-1,-1,-1,-1,-1,-1,-1,40,42,44,-1,46,-1,-1,-1,-1,-1,-1,-1,-1],"split_conditions":[1.28E2,1.14E2,1.66E2,7.57E-1,2.9E1,3.4E1,5.8E1,1E1,3.27E1,3.5E1,1.92E-1,2.5E1,3.1E1,2.0293249E-2,5.747079E-3,4.2E1,-1.3195023E-4,-6.959079E-3,8.896402E-3,1.2E2,6.5E1,-8.294908E-3,2.72E1,-1.1510875E-2,3.5E1,7.2E1,1.6934272E-2,-1.239076E-2,-2.3848196E-3,-3.1081538E-3,-1.231855E-2,5.838459E-3,-6.4612357E-3,-3.2109714E-3,5.49E-1,4E0,4.1E1,1.29088E-2,4.62E1,5.6592636E-3,1.756693E-2,1.6293537E-2,1.3574559E-3,-8.462282E-3,2.192047E-3,-5.4323548E-3,5.8822813E-3],"split_indices":[1,4,1,6,7,5,7,0,5,3,6,7,7,0,0,3,0,0,0,4,2,0,5,0,7,2,0,0,0,0,0,0,0,0,6,0,7,0,5,0,0,0,0,0,0,0,0],"split_type":[0,0,0,0,0,0,0,0,0,0,0,0,0,0,0,0,0,0,0,0,0,0,0,0,0,0,0,0,0,0,0,0,0,0,0,0,0,0,0,0,0,0,0,0,0,0,0],"sum_hessian":[9.4599144E1,5.985667E1,3.4742474E1,3.7648224E1,2.2208448E1,2.3560732E1,1.1181741E1,3.3388046E1,4.2601776E0,9.975749E0,1.2232699E1,1.1299499E1,1.2261232E1,1.0038781E1,1.1429594E0,3.2044563E1,1.3434815E0,2.1808765E0,2.0793014E0,6.8653226E0,3.1104262E0,1.3017098E0,1.0930989E1,3.8522272E0,7.4472713E0,6.129244E0,6.131989E0,3.0268314E1,1.776248E0,1.1071756E0,5.7581472E0,1.137818E0,1.9726081E0,1.1152236E0,9.815766E0,2.7788668E0,4.6684046E0,2.3309798E0,3.7982638E0,4.4007506E0,5.415015E0,1.6532277E0,1.1256391E0,1.3207464E0,3.3476582E0,2.6629107E0,1.1353532E0],"tree_param":{"num_deleted":"0","num_feature":"8","num_nodes":"47","size_leaf_vector":"1"}},{"base_weights":[5.2104713E-3,-6.0090095E-1,1.0326978E0,-1.0008831E0,8.874761E-2,5.513911E-1,1.9158502E0,-1.1406554E0,9.934028E-2,-8.745942E-1,8.7738574E-1,-1.5991825E-1,1.1675595E0,2.003247E-2,5.711297E-3,-1.1863E0,-1.3119652E-4,-6.9232625E-3,8.821749E-3,-1.1364006E0,-1.6223149E-1,-8.262209E-3,1.1313457E0,-1.1459594E-2,4.230742E-1,4.540667E-2,1.4229132E0,-1.2328122E-2,-2.370778E-3,-3.0935423E-3,-1.22634E-2,5.801984E-3,-6.4281076E-3,1.3109791E0,-3.2321303E-3,1.2106634E0,-1.7770384E-1,5.760895E-3,-4.5597884E-3,1.5779483E0,7.296995E-4,-1.3195528E-4,1.4996478E-2,1.6153814E-2,1.3499593E-3,-4.9851662E-3,5.854614E-3,8.296406E-3,1.8578853E-2],"categories":[],"categories_nodes":[],"categories_segments":[],"categories_sizes":[],"default_left":[0,0,0,0,0,0,0,0,0,0,0,0,0,0,0,0,0,0,0,0,0,0,0,0,0,0,0,0,0,0,0,0,0,0,0,0,0,0,0,0,0,0,0,0,0,0,0,0,0],"id":12,"left_children":[1,3,5,7,9,11,13,15,17,19,21,23,25,-1,-1,27,-1,-1,-1,29,31,-1,33,-1,35,37,39,-1,-1,-1,-1,-1,-1,41,-1,43,45,-1,-1,47,-1,-1,-1,-1,-1,-1,-1,-1,-1],"loss_changes":[6.0099564E1,1.6833656E1,1.4162556E1,6.0341454E0,1.8394226E1,1.0958986E1,2.9267502E-1,1.7467308E0,3.8704836E0,1.8568497E0,6.6702623E0,7.548551E0,3.7436752E0,0E0,0E0,1.1602058E0,0E0,0E0,0E0,2.0356369E-1,1.8386495E0,0E0,3.5484648E0,0E0,4.2145863E0,1.1930587E0,2.1438503E0,0E0,0E0,0E0,0E0,0E0,0E0,2.72851E0,0E0,1.4299574E0,1.6793139E0,0E0,0E0,4.7659492E-1,0E0,0E0,0E0,0E0,0E0,0E0,0E0,0E0,0E0],"parents":[2147483647,0,0,1,1,2,2,3,3,4,4,5,5,6,6,7,7,8,8,9,9,10,10,11,11,12,12,15,15,19,19,20,20,22,22,24,24,25,25,26,26,33,33,35,35,36,36,39,39],"right_children":[2,4,6,8,10,12,14,16,18,20,22,24,26,-1,-1,28,-1,-1,-1,30,32,-1,34,-1,36,38,40,-1,-1,-1,-1,-1,-1,42,-1,44,46,-1,-1,48,-1,-1,-1,-1,-1,-1,-1,-1,-1],"split_conditions":[1.28E2,1.14E2,1.66E2,7.57E-1,2.9E1,3.4E1,5.8E1,1E1,3.27E1,3.5E1,1.92E-1,2.5E1,2.85E-1,2.003247E-2,5.711297E-3,4.2E1,-1.3119652E-4,-6.9232625E-3,8.821749E-3,1.2E2,3.59E1,-8.262209E-3,5.3E1,-1.1459594E-2,3.5E1,2.44E-1,2.72E2,-1.2328122E-2,-2.370778E-3,-3.0935423E-3,-1.22634E-2,5.801984E-3,-6.4281076E-3,6.2E1,-3.2321303E-3,4E0,2.04E2,5.760895E-3,-4.5597884E-3,2.9E1,7.296995E-4,-1.3195528E-4,1.4996478E-2,1.6153814E-2,1.3499593E-3,-4.9851662E-3,5.854614E-3,8.296406E-3,1.8578853E-2],"split_indices":[1,4,1,6,7,5,7,0,5,3,6,7,6,0,0,3,0,0,0,4,5,0,7,0,7,6,4,0,0,0,0,0,0,2,0,0,4,0,0,7,0,0,0,0,0,0,0,0,0],"split_type":[0,0,0,0,0,0,0,0,0,0,0,0,0,0,0,0,0,0,0,0,0,0,0,0,0,0,0,0,0,0,0,0,0,0,0,0,0,0,0,0,0,0,0,0,0,0,0,0,0],"sum_hessian":[9.450691E1,5.9703304E1,3.480361E1,3.7501755E1,2.2201551E1,2.3578163E1,1.1225449E1,3.324195E1,4.2598023E0,9.944767E0,1.22567835E1,1.1287848E1,1.2290314E1,1.0080574E1,1.1448746E0,3.1898527E1,1.3434242E0,2.175438E0,2.0843647E0,6.8368464E0,3.1079214E0,1.2977704E0,1.0959013E1,3.8353312E0,7.4525175E0,2.496639E0,9.793674E0,3.0123697E1,1.7748294E0,1.1060106E0,5.7308354E0,1.139798E0,1.9681233E0,9.842237E0,1.1167749E0,2.7855906E0,4.6669264E0,1.1405007E0,1.3561383E0,8.63328E0,1.1603947E0,1.3434279E0,8.49881E0,1.6594701E0,1.1261206E0,3.5298545E0,1.1370721E0,3.4294887E0,5.203791E0],"tree_param":{"num_deleted":"0","num_feature":"8","num_nodes":"49","size_leaf_vector":"1"}},{"base_weights":[5.5172257E-3,-5.96847E-1,1.0224373E0,-9.9503607E-1,8.732304E-2,4.6275207E-1,1.7511457E0,-1.134566E0,9.870924E-2,-8.6979926E-1,8.672475E-1,-6.730529E-1,9.113131E-1,1.8796326E0,9.450339E-4,-1.1801684E0,-1.3044834E-4,-6.8876976E-3,8.748003E-3,-1.1311442E0,-1.6086563E-1,-8.229763E-3,1.118329E0,-1.0565546E-2,-1.3709746E-1,-2.4313968E-2,1.305109E0,4.9219513E-3,1.9684991E0,-1.226629E-2,-2.3568212E-3,-3.0790048E-3,-1.2208981E-2,5.7809586E-3,-6.4025167E-3,1.2956833E0,-3.2168797E-3,9.70591E-3,-9.560551E-3,-4.7204867E-1,8.096592E-3,5.133895E-1,1.6892998E-2,4.940632E-3,2.0743355E-2,-1.3120206E-4,1.48158185E-2,6.130077E-3,-1.0382653E-2,1.1832251E-2,-3.4617083E-3],"categories":[],"categories_nodes":[],"categories_segments":[],"categories_sizes":[],"default_left":[0,0,0,0,0,0,0,0,0,0,0,0,0,0,0,0,0,0,0,0,0,0,0,0,0,0,0,0,0,0,0,0,0,0,0,0,0,0,0,0,0,0,0,0,0,0,0,0,0,0,0],"id":13,"left_children":[1,3,5,7,9,11,13,15,17,19,21,23,25,27,-1,29,-1,-1,-1,31,33,-1,35,-1,37,39,41,-1,43,-1,-1,-1,-1,-1,-1,45,-1,-1,-1,47,-1,49,-1,-1,-1,-1,-1,-1,-1,-1,-1],"loss_changes":[5.9054333E1,1.6582346E1,1.3815304E1,5.9652977E0,1.8068928E1,1.1639345E1,3.0618095E0,1.7283783E0,3.8167963E0,1.8400755E0,6.5567074E0,1.2327456E0,5.904541E0,7.659645E-1,0E0,1.1481171E0,0E0,0E0,0E0,2.0103359E-1,1.8244512E0,0E0,3.4783115E0,0E0,4.506303E0,2.5117695E0,2.550459E0,0E0,9.8664093E-1,0E0,0E0,0E0,0E0,0E0,0E0,2.664606E0,0E0,0E0,0E0,3.3044767E0,0E0,3.3504002E0,0E0,0E0,0E0,0E0,0E0,0E0,0E0,0E0,0E0],"parents":[2147483647,0,0,1,1,2,2,3,3,4,4,5,5,6,6,7,7,8,8,9,9,10,10,11,11,12,12,13,13,15,15,19,19,20,20,22,22,24,24,25,25,26,26,28,28,35,35,39,39,41,41],"right_children":[2,4,6,8,10,12,14,16,18,20,22,24,26,28,-1,30,-1,-1,-1,32,34,-1,36,-1,38,40,42,-1,44,-1,-1,-1,-1,-1,-1,46,-1,-1,-1,48,-1,50,-1,-1,-1,-1,-1,-1,-1,-1,-1],"split_conditions":[1.28E2,1.14E2,1.58E2,7.57E-1,2.9E1,3.02E1,4.55E1,1E1,3.27E1,3.5E1,1.92E-1,2.5E1,2.85E-1,1.15E2,9.450339E-4,4.2E1,-1.3044834E-4,-6.8876976E-3,8.748003E-3,1.2E2,6.5E1,-8.229763E-3,5.3E1,-1.0565546E-2,4E0,4.2E1,3E1,4.9219513E-3,1.7E1,-1.226629E-2,-2.3568212E-3,-3.0790048E-3,-1.2208981E-2,5.7809586E-3,-6.4025167E-3,6.2E1,-3.2168797E-3,9.70591E-3,-9.560551E-3,6.8E1,8.096592E-3,1.41E2,1.6892998E-2,4.940632E-3,2.0743355E-2,-1.3120206E-4,1.48158185E-2,6.130077E-3,-1.0382653E-2,1.1832251E-2,-3.4617083E-3],"split_indices":[1,4,1,6,7,5,5,0,5,3,6,7,6,4,0,3,0,0,0,4,2,0,7,0,0,7,7,0,3,0,0,0,0,0,0,2,0,0,0,2,0,1,0,0,0,0,0,0,0,0,0],"split_type":[0,0,0,0,0,0,0,0,0,0,0,0,0,0,0,0,0,0,0,0,0,0,0,0,0,0,0,0,0,0,0,0,0,0,0,0,0,0,0,0,0,0,0,0,0,0,0,0,0,0,0],"sum_hessian":[9.441015E1,5.954955E1,3.48606E1,3.7354656E1,2.2194893E1,2.0641731E1,1.4218871E1,3.3095337E1,4.2593174E0,9.913645E0,1.2281248E1,5.7023344E0,1.4939396E1,1.3070535E1,1.1483363E0,3.175197E1,1.3433672E0,2.169995E0,2.089322E0,6.8082576E0,3.1053874E0,1.2938203E0,1.0987428E1,2.7577116E0,2.9446225E0,4.7032094E0,1.0236187E1,1.1803756E0,1.1890159E1,2.9978554E1,1.7734159E0,1.1048477E0,5.7034097E0,1.1408646E0,1.9645227E0,9.871832E0,1.1155953E0,1.1729646E0,1.771658E0,3.3426297E0,1.3605797E0,4.1076508E0,6.1285357E0,1.1759449E0,1.0714214E1,1.3433706E0,8.528461E0,1.1178416E0,2.2247882E0,2.0969775E0,2.0106733E0],"tree_param":{"num_deleted":"0","num_feature":"8","num_nodes":"51","size_leaf_vector":"1"}},{"base_weights":[5.7028043E-3,-5.928467E-1,1.0118861E0,-9.892551E-1,8.59148E-2,4.587307E-1,1.7300951E0,-1.1285475E0,9.8079264E-2,-8.650528E-1,8.572971E-1,-6.693288E-1,9.02555E-1,1.8565401E0,9.398484E-4,-1.1741111E0,-1.2970318E-4,-6.8523786E-3,8.675143E-3,-1.1259497E0,-1.5951231E-1,-8.197567E-3,1.10557E0,-1.0520032E-2,-1.3580342E-1,-2.3416242E-2,1.2910889E0,4.8923376E-3,1.9436117E0,-1.2205247E0,-2.3429464E-3,-3.0645418E-3,-1.2155279E-2,5.7449257E-3,-6.3697807E-3,1.2807069E0,-3.2017084E-3,9.6413195E-3,-9.519255E-3,-4.689112E-1,8.038544E-3,5.094779E-1,1.6691944E-2,4.9109636E-3,2.0472547E-2,-4.4587483E-3,-1.2441385E-2,-1.3045284E-4,1.4639199E-2,6.0914704E-3,-1.0335681E-2,1.1727981E-2,-3.4411764E-3],"categories":[],"categories_nodes":[],"categories_segments":[],"categories_sizes":[],"default_left":[0,0,0,0,0,0,0,0,0,0,0,0,0,0,0,0,0,0,0,0,0,0,0,0,0,0,0,0,0,0,0,0,0,0,0,0,0,0,0,0,0,0,0,0,0,0,0,0,0,0,0,0,0],"id":14,"left_children":[1,3,5,7,9,11,13,15,17,19,21,23,25,27,-1,29,-1,-1,-1,31,33,-1,35,-1,37,39,41,-1,43,45,-1,-1,-1,-1,-1,47,-1,-1,-1,49,-1,51,-1,-1,-1,-1,-1,-1,-1,-1,-1,-1,-1],"loss_changes":[5.800333E1,1.633499E1,1.347707E1,5.897423E0,1.7750622E1,1.1444897E1,2.9841156E0,1.7103462E0,3.763948E0,1.8235569E0,6.445874E0,1.222589E0,5.7739944E0,7.30072E-1,0E0,1.1362762E0,0E0,0E0,0E0,1.9858551E-1,1.8038287E0,0E0,3.4101114E0,0E0,4.456099E0,2.4780264E0,2.478447E0,0E0,9.42276E-1,9.273529E-3,0E0,0E0,0E0,0E0,0E0,2.6028156E0,0E0,0E0,0E0,3.2697537E0,0E0,3.2978873E0,0E0,0E0,0E0,0E0,0E0,0E0,0E0,0E0,0E0,0E0,0E0],"parents":[2147483647,0,0,1,1,2,2,3,3,4,4,5,5,6,6,7,7,8,8,9,9,10,10,11,11,12,12,13,13,15,15,19,19,20,20,22,22,24,24,25,25,26,26,28,28,29,29,35,35,39,39,41,41],"right_children":[2,4,6,8,10,12,14,16,18,20,22,24,26,28,-1,30,-1,-1,-1,32,34,-1,36,-1,38,40,42,-1,44,46,-1,-1,-1,-1,-1,48,-1,-1,-1,50,-1,52,-1,-1,-1,-1,-1,-1,-1,-1,-1,-1,-1],"split_conditions":[1.28E2,1.14E2,1.58E2,7.57E-1,2.9E1,3.02E1,4.55E1,1E1,3.27E1,3.5E1,1.92E-1,2.5E1,2.85E-1,1.15E2,9.398484E-4,4.2E1,-1.2970318E-4,-6.8523786E-3,8.675143E-3,1.2E2,6.5E1,-8.197567E-3,5.3E1,-1.0520032E-2,4E0,4.2E1,3E1,4.8923376E-3,1.7E1,5.2E1,-2.3429464E-3,-3.0645418E-3,-1.2155279E-2,5.7449257E-3,-6.3697807E-3,6.2E1,-3.2017084E-3,9.6413195E-3,-9.519255E-3,6.8E1,8.038544E-3,1.41E2,1.6691944E-2,4.9109636E-3,2.0472547E-2,-4.4587483E-3,-1.2441385E-2,-1.3045284E-4,1.4639199E-2,6.0914704E-3,-1.0335681E-2,1.1727981E-2,-3.4411764E-3],"split_indices":[1,4,1,6,7,5,5,0,5,3,6,7,6,4,0,3,0,0,0,4,2,0,7,0,0,7,7,0,3,2,0,0,0,0,0,2,0,0,0,2,0,1,0,0,0,0,0,0,0,0,0,0,0],"split_type":[0,0,0,0,0,0,0,0,0,0,0,0,0,0,0,0,0,0,0,0,0,0,0,0,0,0,0,0,0,0,0,0,0,0,0,0,0,0,0,0,0,0,0,0,0,0,0,0,0,0,0,0,0],"sum_hessian":[9.431488E1,5.9393932E1,3.4920944E1,3.7206978E1,2.2186954E1,2.0652988E1,1.4267956E1,3.2948254E1,4.258724E0,9.882401E0,1.2304553E1,5.6879478E0,1.496504E1,1.3119316E1,1.1486399E0,3.1604944E1,1.3433105E0,2.1645494E0,2.0941749E0,6.7795653E0,3.1028366E0,1.2898598E0,1.1014693E1,2.7463303E0,2.9416175E0,4.7010417E0,1.0263999E1,1.1816913E0,1.1937625E1,2.9832935E1,1.7720075E0,1.1036868E0,5.6758785E0,1.1428024E0,1.9600343E0,9.900276E0,1.1144173E0,1.1757002E0,1.7659173E0,3.3371372E0,1.3639045E0,4.1117444E0,6.152254E0,1.1772528E0,1.0760372E1,1.4706377E0,2.8362299E1,1.3433137E0,8.556962E0,1.1200038E0,2.2171333E0,2.1033232E0,2.0084214E0],"tree_param":{"num_deleted":"0","num_feature":"8","num_nodes":"53","size_leaf_vector":"1"}},{"base_weights":[5.831538E-3,-5.889585E-1,1.0015547E0,-9.836133E-1,8.452232E-2,5.367355E-1,1.8480846E0,-1.122675E0,9.745053E-2,-8.6035556E-1,8.47529E-1,-1.5958375E-1,1.1359695E0,1.9338265E-2,5.4693734E-3,-1.1682032E0,-1.2896353E-4,-6.8173045E-3,8.603156E-3,-1.1208161E0,-1.5817377E-1,-8.165619E-3,1.0930601E0,-1.1344179E-2,4.1093218E-1,4.836966E-1,1.6258162E-2,-1.2145755E0,-2.3291537E-3,-3.050152E-3,-1.2102273E-2,5.7240925E-3,-6.3445177E-3,1.2660395E0,-3.1866156E-3,1.1901693E0,-1.8302934E-1,1.25234015E-2,-1.5443505E-1,-4.436943E-3,-1.2381194E-2,-1.2970855E-4,1.4466476E-2,1.5843637E-2,1.3480932E-3,-4.9986006E-3,5.7195947E-3,-5.4282425E-3,5.8300644E-3],"categories":[],"categories_nodes":[],"categories_segments":[],"categories_sizes":[],"default_left":[0,0,0,0,0,0,0,0,0,0,0,0,0,0,0,0,0,0,0,0,0,0,0,0,0,0,0,0,0,0,0,0,0,0,0,0,0,0,0,0,0,0,0,0,0,0,0,0,0],"id":15,"left_children":[1,3,5,7,9,11,13,15,17,19,21,23,25,-1,-1,27,-1,-1,-1,29,31,-1,33,-1,35,37,-1,39,-1,-1,-1,-1,-1,41,-1,43,45,-1,47,-1,-1,-1,-1,-1,-1,-1,-1,-1,-1],"loss_changes":[5.6980984E1,1.609405E1,1.3164513E1,5.831234E0,1.7439138E1,1.0460058E1,3.193512E-1,1.6928596E0,3.711926E0,1.8072681E0,6.3376665E0,7.2907124E0,3.4833336E0,0E0,0E0,1.1249123E0,0E0,0E0,0E0,1.9621849E-1,1.7898943E0,0E0,3.3437939E0,0E0,4.140268E0,3.7028532E0,0E0,7.6408386E-3,0E0,0E0,0E0,0E0,0E0,2.5430374E0,0E0,1.3668404E0,1.6435748E0,0E0,1.6911339E0,0E0,0E0,0E0,0E0,0E0,0E0,0E0,0E0,0E0,0E0],"parents":[2147483647,0,0,1,1,2,2,3,3,4,4,5,5,6,6,7,7,8,8,9,9,10,10,11,11,12,12,15,15,19,19,20,20,22,22,24,24,25,25,27,27,33,33,35,35,36,36,38,38],"right_children":[2,4,6,8,10,12,14,16,18,20,22,24,26,-1,-1,28,-1,-1,-1,30,32,-1,34,-1,36,38,-1,40,-1,-1,-1,-1,-1,42,-1,44,46,-1,48,-1,-1,-1,-1,-1,-1,-1,-1,-1,-1],"split_conditions":[1.28E2,1.14E2,1.66E2,7.57E-1,2.9E1,3.4E1,5.8E1,1E1,3.27E1,3.5E1,1.92E-1,2.5E1,3.1E1,1.9338265E-2,5.4693734E-3,4.2E1,-1.2896353E-4,-6.8173045E-3,8.603156E-3,1.2E2,3.59E1,-8.165619E-3,5.3E1,-1.1344179E-2,3.5E1,7.2E1,1.6258162E-2,5.2E1,-2.3291537E-3,-3.050152E-3,-1.2102273E-2,5.7240925E-3,-6.3445177E-3,6.2E1,-3.1866156E-3,4E0,2.04E2,1.25234015E-2,8.8E1,-4.436943E-3,-1.2381194E-2,-1.2970855E-4,1.4466476E-2,1.5843637E-2,1.3480932E-3,-4.9986006E-3,5.7195947E-3,-5.4282425E-3,5.8300644E-3],"split_indices":[1,4,1,6,7,5,7,0,5,3,6,7,7,0,0,3,0,0,0,4,5,0,7,0,7,2,0,2,0,0,0,0,0,2,0,0,4,0,2,0,0,0,0,0,0,0,0,0,0],"split_type":[0,0,0,0,0,0,0,0,0,0,0,0,0,0,0,0,0,0,0,0,0,0,0,0,0,0,0,0,0,0,0,0,0,0,0,0,0,0,0,0,0,0,0,0,0,0,0,0,0],"sum_hessian":[9.4215645E1,5.9238407E1,3.4977238E1,3.7060646E1,2.217776E1,2.363409E1,1.1343149E1,3.280262E1,4.2580256E0,9.851034E0,1.2326725E1,1.1270862E1,1.2363228E1,1.0185694E1,1.1574559E0,3.1459366E1,1.3432543E0,2.1591012E0,2.0989244E0,6.7507763E0,3.100258E0,1.2858897E0,1.1040835E1,3.7961004E0,7.474761E0,6.154899E0,6.208329E0,2.9688763E1,1.7706041E0,1.1025279E0,5.648248E0,1.143838E0,1.9564201E0,9.927594E0,1.113241E0,2.7989488E0,4.6758122E0,2.3553352E0,3.7995636E0,1.4680141E0,2.8220749E1,1.343257E0,8.584337E0,1.6728551E0,1.1260935E0,3.531672E0,1.1441405E0,2.6616552E0,1.1379086E0],"tree_param":{"num_deleted":"0","num_feature":"8","num_nodes":"49","size_leaf_vector":"1"}},{"base_weights":[6.0769594E-3,-5.8512104E-1,9.919772E-1,-9.780345E-1,8.314548E-2,4.504174E-1,1.6919737E0,-1.1168702E0,9.682318E-2,-8.557049E-1,8.379376E-1,-6.633943E-1,8.8572615E-1,1.8151684E0,9.119166E-4,-1.1623662E0,-1.282269E-4,-6.7824707E-3,8.532024E-3,-1.1157418E0,-1.5684734E-1,-8.133917E-3,1.0807917E0,-1.0426714E-2,-1.3656585E-1,-2.4740782E-2,1.266364E0,4.7836103E-3,1.9002255E0,-1.2087014E0,-2.3154444E-3,-3.035837E-3,-1.2049952E-2,5.6884955E-3,-6.3121673E-3,-3.1819108E-3,1.2519921E0,9.500815E-3,-9.46409E-3,-4.6686846E-1,7.940679E-3,5.015778E-1,1.6347291E-2,4.801311E-3,2.0013819E-2,-4.4152597E-3,-1.2321787E-2,5.2208207E-3,1.6711676E-2,6.0476665E-3,-1.0297858E-2,1.153732E-2,-3.4131315E-3],"categories":[],"categories_nodes":[],"categories_segments":[],"categories_sizes":[],"default_left":[0,0,0,0,0,0,0,0,0,0,0,0,0,0,0,0,0,0,0,0,0,0,0,0,0,0,0,0,0,0,0,0,0,0,0,0,0,0,0,0,0,0,0,0,0,0,0,0,0,0,0,0,0],"id":16,"left_children":[1,3,5,7,9,11,13,15,17,19,21,23,25,27,-1,29,-1,-1,-1,31,33,-1,35,-1,37,39,41,-1,43,45,-1,-1,-1,-1,-1,-1,47,-1,-1,49,-1,51,-1,-1,-1,-1,-1,-1,-1,-1,-1,-1,-1],"loss_changes":[5.6012268E1,1.5856884E1,1.2893364E1,5.765957E0,1.7134266E1,1.1095301E1,2.8615456E0,1.6756668E0,3.6607144E0,1.791224E0,6.2319994E0,1.1887031E0,5.5798426E0,7.0560455E-1,0E0,1.1138E0,0E0,0E0,0E0,1.9392586E-1,1.7696817E0,0E0,3.2882261E0,0E0,4.3656797E0,2.4345655E0,2.366146E0,0E0,9.085541E-1,6.095886E-3,0E0,0E0,0E0,0E0,0E0,0E0,2.4786854E0,0E0,0E0,3.235865E0,0E0,3.2077286E0,0E0,0E0,0E0,0E0,0E0,0E0,0E0,0E0,0E0,0E0,0E0],"parents":[2147483647,0,0,1,1,2,2,3,3,4,4,5,5,6,6,7,7,8,8,9,9,10,10,11,11,12,12,13,13,15,15,19,19,20,20,22,22,24,24,25,25,26,26,28,28,29,29,36,36,39,39,41,41],"right_children":[2,4,6,8,10,12,14,16,18,20,22,24,26,28,-1,30,-1,-1,-1,32,34,-1,36,-1,38,40,42,-1,44,46,-1,-1,-1,-1,-1,-1,48,-1,-1,50,-1,52,-1,-1,-1,-1,-1,-1,-1,-1,-1,-1,-1],"split_conditions":[1.28E2,1.14E2,1.58E2,7.57E-1,2.9E1,3.02E1,4.55E1,1E1,3.27E1,3.5E1,1.92E-1,2.5E1,2.85E-1,1.15E2,9.119166E-4,4.2E1,-1.282269E-4,-6.7824707E-3,8.532024E-3,1.2E2,6.5E1,-8.133917E-3,2.72E1,-1.0426714E-2,4E0,4.2E1,3E1,4.7836103E-3,1.7E1,5.2E1,-2.3154444E-3,-3.035837E-3,-1.2049952E-2,5.6884955E-3,-6.3121673E-3,-3.1819108E-3,5.49E-1,9.500815E-3,-9.46409E-3,6.8E1,7.940679E-3,1.41E2,1.6347291E-2,4.801311E-3,2.0013819E-2,-4.4152597E-3,-1.2321787E-2,5.2208207E-3,1.6711676E-2,6.0476665E-3,-1.0297858E-2,1.153732E-2,-3.4131315E-3],"split_indices":[1,4,1,6,7,5,5,0,5,3,6,7,6,4,0,3,0,0,0,4,2,0,5,0,0,7,7,0,3,2,0,0,0,0,0,0,6,0,0,2,0,1,0,0,0,0,0,0,0,0,0,0,0],"split_type":[0,0,0,0,0,0,0,0,0,0,0,0,0,0,0,0,0,0,0,0,0,0,0,0,0,0,0,0,0,0,0,0,0,0,0,0,0,0,0,0,0,0,0,0,0,0,0,0,0,0,0,0,0],"sum_hessian":[9.410283E1,5.908115E1,3.5021675E1,3.69138E1,2.216735E1,2.0672009E1,1.4349665E1,3.2656578E1,4.2572236E0,9.819562E0,1.2347788E1,5.6616783E0,1.5010331E1,1.3199887E1,1.1497774E0,3.131338E1,1.3431983E0,2.153651E0,2.1035726E0,6.7218986E0,3.0976636E0,1.2819104E0,1.1065877E1,2.7225192E0,2.939159E0,4.700933E0,1.0309399E1,1.1858807E0,1.2014007E1,2.9544172E1,1.7692057E0,1.1013712E0,5.6205273E0,1.1457341E0,1.9519297E0,1.1129227E0,9.952955E0,1.1811392E0,1.7580197E0,3.3317344E0,1.3691987E0,4.1191025E0,6.1902957E0,1.180989E0,1.0833018E1,1.4653957E0,2.8078777E1,4.4498796E0,5.503075E0,1.1218007E0,2.2099338E0,2.114393E0,2.0047095E0],"tree_param":{"num_deleted":"0","num_feature":"8","num_nodes":"53","size_leaf_vector":"1"}},{"base_weights":[6.2725823E-3,-5.812123E-1,9.8203707E-1,-9.7251695E-1,8.21222E-2,4.4656512E-1,1.6724617E0,-1.1111312E0,9.619694E-2,-8.5110146E-1,8.2915354E-1,-6.597956E-1,8.774009E-1,1.7938299E0,9.069164E-4,-1.156598E0,-1.2749429E-4,-6.7478763E-3,8.461733E-3,-1.1107255E0,-1.5553533E-1,-8.102453E-3,1.0694779E0,-1.038262E-2,-1.353134E-1,-2.3866624E-2,1.253126E0,4.7549894E-3,1.8772886E0,-1.2029002E0,-2.301815E-3,-3.0215934E-3,-1.1998296E-2,5.667966E-3,-6.2872777E-3,1.2396847E0,-3.199466E-3,9.438366E-3,-9.423689E-3,4.1592216E-1,-8.449285E-3,4.9779037E-1,1.6159274E-2,4.77265E-3,1.9764997E-2,-4.393696E-3,-1.2263139E-2,-1.26906E-4,1.415627E-2,7.899177E-3,-1.6789594E-4,1.14373965E-2,-3.3928987E-3],"categories":[],"categories_nodes":[],"categories_segments":[],"categories_sizes":[],"default_left":[0,0,0,0,0,0,0,0,0,0,0,0,0,0,0,0,0,0,0,0,0,0,0,0,0,0,0,0,0,0,0,0,0,0,0,0,0,0,0,0,0,0,0,0,0,0,0,0,0,0,0,0,0],"id":17,"left_children":[1,3,5,7,9,11,13,15,17,19,21,23,25,27,-1,29,-1,-1,-1,31,33,-1,35,-1,37,39,41,-1,43,45,-1,-1,-1,-1,-1,47,-1,-1,-1,49,-1,51,-1,-1,-1,-1,-1,-1,-1,-1,-1,-1,-1],"loss_changes":[5.502472E1,1.5633404E1,1.2588623E1,5.701576E0,1.6848042E1,1.0912577E1,2.7921143E0,1.6587524E0,3.6102982E0,1.7753978E0,6.132923E0,1.1789179E0,5.458948E0,6.7427826E-1,0E0,1.1029205E0,0E0,0E0,0E0,1.9171047E-1,1.7560549E0,0E0,3.2555428E0,0E0,4.317339E0,2.4091077E0,2.3015232E0,0E0,8.6989594E-1,4.6463013E-3,0E0,0E0,0E0,0E0,0E0,2.4362144E0,0E0,0E0,0E0,7.222419E-1,0E0,3.15797E0,0E0,0E0,0E0,0E0,0E0,0E0,0E0,0E0,0E0,0E0,0E0],"parents":[2147483647,0,0,1,1,2,2,3,3,4,4,5,5,6,6,7,7,8,8,9,9,10,10,11,11,12,12,13,13,15,15,19,19,20,20,22,22,24,24,25,25,26,26,28,28,29,29,35,35,39,39,41,41],"right_children":[2,4,6,8,10,12,14,16,18,20,22,24,26,28,-1,30,-1,-1,-1,32,34,-1,36,-1,38,40,42,-1,44,46,-1,-1,-1,-1,-1,48,-1,-1,-1,50,-1,52,-1,-1,-1,-1,-1,-1,-1,-1,-1,-1,-1],"split_conditions":[1.28E2,1.14E2,1.58E2,7.57E-1,2.9E1,3.02E1,4.55E1,1E1,3.27E1,3.5E1,1.92E-1,2.5E1,2.85E-1,1.15E2,9.069164E-4,4.2E1,-1.2749429E-4,-6.7478763E-3,8.461733E-3,1.2E2,3.59E1,-8.102453E-3,5.3E1,-1.038262E-2,4E0,2.55E-1,3E1,4.7549894E-3,1.7E1,5.2E1,-2.301815E-3,-3.0215934E-3,-1.1998296E-2,5.667966E-3,-6.2872777E-3,6.2E1,-3.199466E-3,9.438366E-3,-9.423689E-3,1.75E2,-8.449285E-3,1.41E2,1.6159274E-2,4.77265E-3,1.9764997E-2,-4.393696E-3,-1.2263139E-2,-1.26906E-4,1.415627E-2,7.899177E-3,-1.6789594E-4,1.14373965E-2,-3.3928987E-3],"split_indices":[1,4,1,6,7,5,5,0,5,3,6,7,6,4,0,3,0,0,0,4,5,0,7,0,0,6,7,0,3,2,0,0,0,0,0,2,0,0,0,4,0,1,0,0,0,0,0,0,0,0,0,0,0],"split_type":[0,0,0,0,0,0,0,0,0,0,0,0,0,0,0,0,0,0,0,0,0,0,0,0,0,0,0,0,0,0,0,0,0,0,0,0,0,0,0,0,0,0,0,0,0,0,0,0,0,0,0,0,0],"sum_hessian":[9.399215E1,5.8921345E1,3.5070805E1,3.6766487E1,2.2154858E1,2.0679346E1,1.43914585E1,3.2510166E1,4.25632E0,9.787981E0,1.2366878E1,5.646931E0,1.5032414E1,1.3241391E1,1.1500677E0,3.1167025E1,1.3431425E0,2.1481998E0,2.10812E0,6.6929383E0,3.0950427E0,1.2779229E0,1.1088955E1,2.7110453E0,2.9358857E0,4.698472E0,1.0333942E1,1.1871015E0,1.205429E1,2.9399212E1,1.7678127E0,1.1002165E0,5.5927215E0,1.1467327E0,1.9483101E0,9.974797E0,1.1141579E0,1.1836684E0,1.7522173E0,3.3809524E0,1.3175195E0,4.1227155E0,6.2112274E0,1.1821995E0,1.087209E1,1.4627827E0,2.7936428E1,1.343007E0,8.63179E0,1.3707224E0,2.0102298E0,2.1202435E0,2.0024717E0],"tree_param":{"num_deleted":"0","num_feature":"8","num_nodes":"53","size_leaf_vector":"1"}},{"base_weights":[6.3336105E-3,-5.774725E-1,9.721298E-1,-8.754397E-1,2.754751E-1,4.0963507E-1,1.6105258E0,-9.478569E-1,8.39528E-3,-5.5184364E-1,9.8199326E-1,-7.52761E-1,8.510055E-1,6.899933E-4,1.7210602E0,-1.045559E0,9.846466E-2,-9.602928E-1,1.2884301E-1,-8.2681915E-3,1.3872156E0,1.277443E-3,-9.725613E-1,-8.233996E-2,1.2147468E0,1.8461637E0,9.0194336E-4,-1.1908197E0,-6.058942E-1,6.000842E-1,-7.827863E-3,-2.2162073E-3,-1.0897411E-2,-8.588737E-3,9.630976E-3,1.6262039E0,2.638563E-4,-1.0882192E-2,-2.8001382E-3,-5.932125E-1,7.847216E-3,4.9404278E-1,1.5695876E0,4.7362624E-3,1.9345589E0,-1.2150434E-2,-3.0686315E-3,-2.312106E-3,-1.1416249E-2,-2.8150314E-3,1.1101503E-2,2.0322124E-3,1.8647641E-2,1.5138794E-3,-9.48265E-3,1.1338917E-2,-3.37279E-3,1.7095782E-2,4.7921557E-3,4.7441903E-3,2.0398602E-2],"categories":[],"categories_nodes":[],"categories_segments":[],"categories_sizes":[],"default_left":[0,0,0,0,0,0,0,0,0,0,0,0,0,0,0,0,0,0,0,0,0,0,0,0,0,0,0,0,0,0,0,0,0,0,0,0,0,0,0,0,0,0,0,0,0,0,0,0,0,0,0,0,0,0,0,0,0,0,0,0,0],"id":18,"left_children":[1,3,5,7,9,11,13,15,-1,17,19,21,23,-1,25,27,29,31,33,-1,35,-1,37,39,41,43,-1,45,47,49,-1,-1,-1,-1,-1,51,-1,-1,-1,53,-1,55,57,-1,59,-1,-1,-1,-1,-1,-1,-1,-1,-1,-1,-1,-1,-1,-1,-1,-1],"loss_changes":[5.4057655E1,1.5429445E1,1.2309998E1,6.325878E0,1.0030075E1,1.1179334E1,2.7057304E0,4.518589E0,0E0,2.3805387E0,7.8281975E0,1.3210256E0,5.31388E0,0E0,2.9807243E0,1.8070221E0,2.5044172E0,2.5489283E-1,4.062109E0,0E0,2.5004578E0,0E0,1.0095215E-1,2.7880461E0,2.0668964E0,8.156891E-1,0E0,2.4219131E-1,2.1182947E0,1.8860103E0,0E0,0E0,0E0,0E0,0E0,1.8736229E0,0E0,0E0,0E0,1.1663575E0,0E0,3.1091511E0,2.4743652E-1,0E0,1.0444908E0,0E0,0E0,0E0,0E0,0E0,0E0,0E0,0E0,0E0,0E0,0E0,0E0,0E0,0E0,0E0,0E0],"parents":[2147483647,0,0,1,1,2,2,3,3,4,4,5,5,6,6,7,7,9,9,10,10,11,11,12,12,14,14,15,15,16,16,17,17,18,18,20,20,22,22,23,23,24,24,25,25,27,27,28,28,29,29,35,35,39,39,41,41,42,42,44,44],"right_children":[2,4,6,8,10,12,14,16,-1,18,20,22,24,-1,26,28,30,32,34,-1,36,-1,38,40,42,44,-1,46,48,50,-1,-1,-1,-1,-1,52,-1,-1,-1,54,-1,56,58,-1,60,-1,-1,-1,-1,-1,-1,-1,-1,-1,-1,-1,-1,-1,-1,-1,-1],"split_conditions":[1.28E2,6.4E-1,1.55E2,4.54E1,2.9E1,3.02E1,1.65E-1,9E0,8.39528E-3,3.27E1,2.6E1,1.31E2,2.85E-1,6.899933E-4,4.55E1,1.19E2,4.7E1,6.98E-1,2.5E1,-8.2681915E-3,4.1E1,1.277443E-3,2.04E2,4.2E1,3E1,1.06E2,9.0194336E-4,4.2E1,3.59E1,1.06E2,-7.827863E-3,-2.2162073E-3,-1.0897411E-2,-8.588737E-3,9.630976E-3,9.153609E1,2.638563E-4,-1.0882192E-2,-2.8001382E-3,7E1,7.847216E-3,1.41E2,1.52E2,4.7362624E-3,1.7E1,-1.2150434E-2,-3.0686315E-3,-2.312106E-3,-1.1416249E-2,-2.8150314E-3,1.1101503E-2,2.0322124E-3,1.8647641E-2,1.5138794E-3,-9.48265E-3,1.1338917E-2,-3.37279E-3,1.7095782E-2,4.7921557E-3,4.7441903E-3,2.0398602E-2],"split_indices":[1,6,1,5,7,5,6,0,0,5,5,1,6,0,5,4,7,6,7,0,3,0,4,7,7,4,0,3,5,4,0,0,0,0,0,4,0,0,0,2,0,1,1,0,3,0,0,0,0,0,0,0,0,0,0,0,0,0,0,0,0],"split_type":[0,0,0,0,0,0,0,0,0,0,0,0,0,0,0,0,0,0,0,0,0,0,0,0,0,0,0,0,0,0,0,0,0,0,0,0,0,0,0,0,0,0,0,0,0,0,0,0,0,0,0,0,0,0,0,0,0,0,0,0,0],"sum_hessian":[9.387886E1,5.8760994E1,3.5117867E1,4.3528465E1,1.5232529E1,1.9541441E1,1.5576426E1,4.219406E1,1.3344069E0,7.117271E0,8.115257E0,5.183812E0,1.435763E1,1.1508435E0,1.4425582E1,3.8591263E1,3.6027982E0,4.191419E0,2.9258516E0,1.2948699E0,6.820388E0,1.1191977E0,4.0646143E0,4.2432504E0,1.0114379E1,1.3275226E1,1.1503559E0,2.7723297E1,1.0867965E1,2.499248E0,1.1035503E0,1.0293977E0,3.1620214E0,1.3261935E0,1.5996581E0,5.6356487E0,1.1847389E0,2.9933808E0,1.0712335E0,2.8687937E0,1.374457E0,4.126168E0,5.988211E0,1.1879306E0,1.2087296E1,2.6619282E1,1.1040154E0,7.2376328E0,3.6303325E0,1.0802579E0,1.41899E0,1.0750386E0,4.5606103E0,1.1114753E0,1.7573183E0,2.1259282E0,2.0002396E0,4.8036013E0,1.1846099E0,1.1833913E0,1.0903904E1],"tree_param":{"num_deleted":"0","num_feature":"8","num_nodes":"61","size_leaf_vector":"1"}},{"base_weights":[6.566827E-3,-5.7353914E-1,9.625775E-1,-9.617223E-1,8.02051E-2,4.0627548E-1,1.592553E0,-1.1001139E0,9.7029604E-2,-8.428906E-1,8.1370175E-1,-7.4882865E-1,8.434434E-1,6.8623736E-4,1.7015448E0,-1.1456063E0,-1.096703E-4,-6.6726576E-3,8.353823E-3,-1.1023299E0,-1.5150842E-1,-8.065702E-3,1.0503806E0,1.2704366E-3,-9.681244E-1,-8.158081E-2,1.2031169E0,1.8248502E0,8.969987E-4,-2.4780869E-3,-1.1940748E-2,-2.960901E-3,-1.1919478E-2,5.632294E-3,-6.224429E-3,-3.1505385E-3,1.2166486E0,-1.0834361E-2,-2.7871293E-3,-5.9014523E-1,7.791628E-3,4.9033442E-1,1.5533155E0,4.707973E-3,1.9116595E0,5.082314E-3,1.621848E-2,1.5055182E-3,-9.4421E-3,1.1241847E-2,-3.352805E-3,1.6909262E-2,4.763489E-3,4.7159297E-3,2.0150311E-2],"categories":[],"categories_nodes":[],"categories_segments":[],"categories_sizes":[],"default_left":[0,0,0,0,0,0,0,0,0,0,0,0,0,0,0,0,0,0,0,0,0,0,0,0,0,0,0,0,0,0,0,0,0,0,0,0,0,0,0,0,0,0,0,0,0,0,0,0,0,0,0,0,0,0,0],"id":19,"left_children":[1,3,5,7,9,11,13,15,17,19,21,23,25,-1,27,29,-1,-1,-1,31,33,-1,35,-1,37,39,41,43,-1,-1,-1,-1,-1,-1,-1,-1,45,-1,-1,47,-1,49,51,-1,53,-1,-1,-1,-1,-1,-1,-1,-1,-1,-1],"loss_changes":[5.3108578E1,1.5203314E1,1.20260315E1,5.5977516E0,1.6346708E1,1.1006876E1,2.6429825E0,1.6336403E0,3.5207667E0,1.7580838E0,5.98485E0,1.3082469E0,5.21364E0,0E0,2.9098358E0,1.091465E0,0E0,0E0,0E0,1.9942951E-1,1.7265017E0,0E0,3.1358156E0,0E0,9.958458E-2,2.7540777E0,2.017643E0,7.824898E-1,0E0,0E0,0E0,0E0,0E0,0E0,0E0,0E0,2.337206E0,0E0,0E0,1.1553905E0,0E0,3.0612478E0,2.3265648E-1,0E0,1.0034752E0,0E0,0E0,0E0,0E0,0E0,0E0,0E0,0E0,0E0,0E0],"parents":[2147483647,0,0,1,1,2,2,3,3,4,4,5,5,6,6,7,7,8,8,9,9,10,10,11,11,12,12,14,14,15,15,19,19,20,20,22,22,24,24,25,25,26,26,27,27,36,36,39,39,41,41,42,42,44,44],"right_children":[2,4,6,8,10,12,14,16,18,20,22,24,26,-1,28,30,-1,-1,-1,32,34,-1,36,-1,38,40,42,44,-1,-1,-1,-1,-1,-1,-1,-1,46,-1,-1,48,-1,50,52,-1,54,-1,-1,-1,-1,-1,-1,-1,-1,-1,-1],"split_conditions":[1.28E2,1.14E2,1.55E2,7.57E-1,2.9E1,3.02E1,1.65E-1,1E1,3.27E1,3.5E1,1.92E-1,1.31E2,2.85E-1,6.8623736E-4,4.55E1,5.2E1,-1.096703E-4,-6.6726576E-3,8.353823E-3,1.2E2,3.59E1,-8.065702E-3,2.72E1,1.2704366E-3,2.04E2,4.2E1,3E1,1.06E2,8.969987E-4,-2.4780869E-3,-1.1940748E-2,-2.960901E-3,-1.1919478E-2,5.632294E-3,-6.224429E-3,-3.1505385E-3,5.49E-1,-1.0834361E-2,-2.7871293E-3,7E1,7.791628E-3,1.41E2,1.52E2,4.707973E-3,1.7E1,5.082314E-3,1.621848E-2,1.5055182E-3,-9.4421E-3,1.1241847E-2,-3.352805E-3,1.6909262E-2,4.763489E-3,4.7159297E-3,2.0150311E-2],"split_indices":[1,4,1,6,7,5,6,0,5,3,6,1,6,0,5,2,0,0,0,4,5,0,5,0,4,7,7,4,0,0,0,0,0,0,0,0,6,0,0,2,0,1,1,0,3,0,0,0,0,0,0,0,0,0,0],"split_type":[0,0,0,0,0,0,0,0,0,0,0,0,0,0,0,0,0,0,0,0,0,0,0,0,0,0,0,0,0,0,0,0,0,0,0,0,0,0,0,0,0,0,0,0,0,0,0,0,0,0,0,0,0,0,0],"sum_hessian":[9.376683E1,5.860529E1,3.516154E1,3.6475567E1,2.2129723E1,1.9546152E1,1.5615388E1,3.222439E1,4.251181E0,9.732438E0,1.2397284E1,5.17078E0,1.4375371E1,1.1510438E0,1.4464344E1,3.0882616E1,1.3417706E0,2.136201E0,2.1149802E0,6.6446614E0,3.0877767E0,1.2732071E0,1.1124077E1,1.119629E0,4.0511513E0,4.2411013E0,1.013427E1,1.3313702E1,1.1506423E0,1.8949337E0,2.8987682E1,1.0952512E0,5.5494103E0,1.1485851E0,1.9391915E0,1.1103934E0,1.0013683E1,2.9810066E0,1.0701445E0,2.8635628E0,1.3775387E0,4.129462E0,6.0048075E0,1.1891208E0,1.2124581E1,4.4638066E0,5.5498767E0,1.1120226E0,1.7515402E0,2.131449E0,1.9980129E0,4.8189745E0,1.1858331E0,1.1845648E0,1.0940017E1],"tree_param":{"num_deleted":"0","num_feature":"8","num_nodes":"55","size_leaf_vector":"1"}},{"base_weights":[6.806739E-3,-5.6970376E-1,9.5321244E-1,-8.652291E-1,2.7086356E-1,5.126163E-1,1.7481874E0,-9.376597E-1,8.3437525E-3,-5.452277E-1,9.633096E-1,-1.6029435E-1,1.0865538E0,1.8320266E-2,5.0860886E-3,-1.0351176E0,9.850581E-2,-9.512428E-1,1.2744844E-1,-8.210931E-3,1.3605735E0,-1.1193776E-2,3.934912E-1,4.720426E-2,1.3180755E0,-1.1797429E0,-5.995301E-1,5.967632E-1,-7.789534E-3,-2.1400217E-3,-1.0816414E-2,-8.54465E-3,9.532416E-3,1.5973195E0,1.8247117E-4,1.1616486E0,-1.9131365E-1,5.615777E-3,-4.437434E-3,1.4691724E0,3.2514567E-4,-1.2040646E-2,-3.0070927E-3,-2.2702813E-3,-1.134182E-2,-2.7694707E-3,1.0989531E-2,4.3349103E-3,1.9375274E-2,1.54608255E-2,1.3019916E-3,-5.0296974E-3,5.5373544E-3,1.5708266E-2,4.121252E-3],"categories":[],"categories_nodes":[],"categories_segments":[],"categories_sizes":[],"default_left":[0,0,0,0,0,0,0,0,0,0,0,0,0,0,0,0,0,0,0,0,0,0,0,0,0,0,0,0,0,0,0,0,0,0,0,0,0,0,0,0,0,0,0,0,0,0,0,0,0,0,0,0,0,0,0],"id":20,"left_children":[1,3,5,7,9,11,13,15,-1,17,19,21,23,-1,-1,25,27,29,31,-1,33,-1,35,37,39,41,43,45,-1,-1,-1,-1,-1,47,-1,49,51,-1,-1,53,-1,-1,-1,-1,-1,-1,-1,-1,-1,-1,-1,-1,-1,-1,-1],"loss_changes":[5.218111E1,1.4999973E1,1.1783924E1,6.2256317E0,9.693146E0,9.716318E0,3.666916E-1,4.432171E0,0E0,2.329515E0,7.5949507E0,6.9438143E0,3.1773586E0,0E0,0E0,1.7672958E0,2.4757862E0,2.6461172E-1,3.9972835E0,0E0,2.4656572E0,0E0,4.0416474E0,1.1304605E0,2.083683E0,2.4631882E-1,2.0974822E0,1.8400041E0,0E0,0E0,0E0,0E0,0E0,1.797842E0,0E0,1.3120084E0,1.5987597E0,0E0,0E0,4.0527344E-1,0E0,0E0,0E0,0E0,0E0,0E0,0E0,0E0,0E0,0E0,0E0,0E0,0E0,0E0,0E0],"parents":[2147483647,0,0,1,1,2,2,3,3,4,4,5,5,6,6,7,7,9,9,10,10,11,11,12,12,15,15,16,16,17,17,18,18,20,20,22,22,23,23,24,24,25,25,26,26,27,27,33,33,35,35,36,36,39,39],"right_children":[2,4,6,8,10,12,14,16,-1,18,20,22,24,-1,-1,26,28,30,32,-1,34,-1,36,38,40,42,44,46,-1,-1,-1,-1,-1,48,-1,50,52,-1,-1,54,-1,-1,-1,-1,-1,-1,-1,-1,-1,-1,-1,-1,-1,-1,-1],"split_conditions":[1.28E2,6.4E-1,1.66E2,4.54E1,2.9E1,3.4E1,5.8E1,9E0,8.3437525E-3,3.27E1,2.6E1,2.5E1,2.85E-1,1.8320266E-2,5.0860886E-3,1.19E2,4.7E1,1.4E1,2.5E1,-8.210931E-3,4.1E1,-1.1193776E-2,3.5E1,2.44E-1,2.72E2,4.2E1,3.59E1,1.06E2,-7.789534E-3,-2.1400217E-3,-1.0816414E-2,-8.54465E-3,9.532416E-3,1.19381584E2,1.8247117E-4,4E0,2.04E2,5.615777E-3,-4.437434E-3,1.095E0,3.2514567E-4,-1.2040646E-2,-3.0070927E-3,-2.2702813E-3,-1.134182E-2,-2.7694707E-3,1.0989531E-2,4.3349103E-3,1.9375274E-2,1.54608255E-2,1.3019916E-3,-5.0296974E-3,5.5373544E-3,1.5708266E-2,4.121252E-3],"split_indices":[1,6,1,5,7,5,7,0,0,5,5,7,6,0,0,4,7,3,7,0,3,0,7,6,4,3,5,4,0,0,0,0,0,4,0,0,4,0,0,6,0,0,0,0,0,0,0,0,0,0,0,0,0,0,0],"split_type":[0,0,0,0,0,0,0,0,0,0,0,0,0,0,0,0,0,0,0,0,0,0,0,0,0,0,0,0,0,0,0,0,0,0,0,0,0,0,0,0,0,0,0,0,0,0,0,0,0,0,0,0,0,0,0],"sum_hessian":[9.364232E1,5.8440727E1,3.5201595E1,4.321716E1,1.5223565E1,2.3707237E1,1.1494357E1,4.1880676E1,1.3364843E0,7.085483E0,8.138082E0,1.1244446E1,1.2462791E1,1.0318519E1,1.1758387E0,3.8281105E1,3.5995722E0,4.1602902E0,2.9251928E0,1.2876108E0,6.850471E0,3.7421749E0,7.5022707E0,2.4897346E0,9.973057E0,2.7456507E1,1.0824598E1,2.4999144E0,1.0996577E0,1.0221955E0,3.1380947E0,1.3204203E0,1.6047726E0,5.6619163E0,1.1885549E0,2.8164282E0,4.6858425E0,1.1456035E0,1.3441311E0,8.796361E0,1.1766956E0,2.6357473E1,1.0990335E0,7.219362E0,3.605237E0,1.0761497E0,1.4237648E0,1.7951214E0,3.866795E0,1.6882533E0,1.1281748E0,3.5329268E0,1.1529158E0,7.581237E0,1.215124E0],"tree_param":{"num_deleted":"0","num_feature":"8","num_nodes":"55","size_leaf_vector":"1"}},{"base_weights":[7.0948526E-3,-5.658071E-1,9.4415605E-1,-9.5096874E-1,7.8598626E-2,3.9880925E-1,1.5596688E0,-1.089185E0,9.817301E-2,-8.350295E-1,7.99546E-1,-7.4256665E-1,8.2808167E-1,6.39937E-4,1.6665366E0,-1.1347098E0,-9.211806E-5,-6.600875E-3,8.258613E-3,-1.094338E0,-1.4755411E-1,-8.029428E-3,1.0328475E0,1.2490831E-3,-9.606678E-1,-7.952666E-2,1.1791924E0,1.7874151E0,8.529176E-4,-2.4130107E-3,-1.1833102E-2,-2.901049E-3,-1.1845014E-2,5.596802E-3,-6.162492E-3,1.1963413E0,-3.1334343E-3,-1.0757009E-2,-2.7516084E-3,-5.855937E-1,7.734001E-3,4.7503754E-1,1.5269477E0,4.6050167E-3,1.8725498E0,-1.047412E-4,1.3642015E-2,1.511586E-3,-9.390485E-3,1.1024416E-2,-3.3999938E-3,1.66183E-2,4.6917694E-3,4.612994E-3,1.9738367E-2],"categories":[],"categories_nodes":[],"categories_segments":[],"categories_sizes":[],"default_left":[0,0,0,0,0,0,0,0,0,0,0,0,0,0,0,0,0,0,0,0,0,0,0,0,0,0,0,0,0,0,0,0,0,0,0,0,0,0,0,0,0,0,0,0,0,0,0,0,0,0,0,0,0,0,0],"id":21,"left_children":[1,3,5,7,9,11,13,15,17,19,21,23,25,-1,27,29,-1,-1,-1,31,33,-1,35,-1,37,39,41,43,-1,-1,-1,-1,-1,-1,-1,45,-1,-1,-1,47,-1,49,51,-1,53,-1,-1,-1,-1,-1,-1,-1,-1,-1,-1],"loss_changes":[5.127612E1,1.4788637E1,1.1541431E1,5.4985046E0,1.5883896E1,1.0687012E1,2.559414E0,1.6088524E0,3.4394584E0,1.742106E0,5.8476906E0,1.2827306E0,5.004921E0,0E0,2.8154259E0,1.0863304E0,0E0,0E0,0E0,2.073021E-1,1.6974714E0,0E0,3.050006E0,0E0,1.0033798E-1,2.7128253E0,2.0112562E0,7.61528E-1,0E0,0E0,0E0,0E0,0E0,0E0,0E0,2.2519064E0,0E0,0E0,0E0,1.1458482E0,0E0,3.006373E0,2.2322845E-1,0E0,9.7369766E-1,0E0,0E0,0E0,0E0,0E0,0E0,0E0,0E0,0E0,0E0],"parents":[2147483647,0,0,1,1,2,2,3,3,4,4,5,5,6,6,7,7,8,8,9,9,10,10,11,11,12,12,14,14,15,15,19,19,20,20,22,22,24,24,25,25,26,26,27,27,35,35,39,39,41,41,42,42,44,44],"right_children":[2,4,6,8,10,12,14,16,18,20,22,24,26,-1,28,30,-1,-1,-1,32,34,-1,36,-1,38,40,42,44,-1,-1,-1,-1,-1,-1,-1,46,-1,-1,-1,48,-1,50,52,-1,54,-1,-1,-1,-1,-1,-1,-1,-1,-1,-1],"split_conditions":[1.28E2,1.14E2,1.55E2,7.57E-1,2.9E1,3.02E1,1.65E-1,1E1,3.27E1,3.5E1,1.92E-1,1.31E2,2.85E-1,6.39937E-4,4.55E1,5.2E1,-9.211806E-5,-6.600875E-3,8.258613E-3,1.2E2,3.59E1,-8.029428E-3,5.3E1,1.2490831E-3,2.04E2,4.2E1,3E1,1.06E2,8.529176E-4,-2.4130107E-3,-1.1833102E-2,-2.901049E-3,-1.1845014E-2,5.596802E-3,-6.162492E-3,6.2E1,-3.1334343E-3,-1.0757009E-2,-2.7516084E-3,7E1,7.734001E-3,1.41E2,1.52E2,4.6050167E-3,1.7E1,-1.047412E-4,1.3642015E-2,1.511586E-3,-9.390485E-3,1.1024416E-2,-3.3999938E-3,1.66183E-2,4.6917694E-3,4.612994E-3,1.9738367E-2],"split_indices":[1,4,1,6,7,5,6,0,5,3,6,1,6,0,5,2,0,0,0,4,5,0,7,0,4,7,7,4,0,0,0,0,0,0,0,2,0,0,0,2,0,1,1,0,3,0,0,0,0,0,0,0,0,0,0],"split_type":[0,0,0,0,0,0,0,0,0,0,0,0,0,0,0,0,0,0,0,0,0,0,0,0,0,0,0,0,0,0,0,0,0,0,0,0,0,0,0,0,0,0,0,0,0,0,0,0,0,0,0,0,0,0,0],"sum_hessian":[9.3518875E1,5.8282326E1,3.523655E1,3.618112E1,2.2101206E1,1.9556946E1,1.5679605E1,3.1935677E1,4.245445E0,9.6781845E0,1.242302E1,5.1456223E0,1.4411323E1,1.1522362E0,1.4527369E1,3.0595287E1,1.3403887E0,2.1245425E0,2.1209023E0,6.597758E0,3.0804272E0,1.2684829E0,1.1154537E1,1.1196443E0,4.025978E0,4.235698E0,1.0175624E1,1.3374563E1,1.1528056E0,1.8862269E0,2.870906E1,1.0902822E0,5.5074754E0,1.1504058E0,1.9300215E0,1.0045797E1,1.1087399E0,2.9600542E0,1.0659242E0,2.8551075E0,1.3805907E0,4.146191E0,6.0294333E0,1.1927887E0,1.2181774E1,1.3411713E0,8.704626E0,1.1112086E0,1.7438989E0,2.143515E0,2.002676E0,4.8410554E0,1.1883782E0,1.1877007E0,1.0994073E1],"tree_param":{"num_deleted":"0","num_feature":"8","num_nodes":"55","size_leaf_vector":"1"}},{"base_weights":[7.240972E-3,-5.621749E-1,9.351232E-1,-8.556093E-1,2.6738194E-1,5.0356317E-1,1.7115192E0,-9.2803824E-1,8.285333E-3,-5.3874445E-1,9.4726604E-1,-1.5901351E-1,1.0660776E0,1.7937483E-2,4.981639E-3,-1.0250767E0,9.622259E-2,-9.423422E-1,1.2604646E-1,-8.160923E-3,1.3377646E0,-1.1128656E-2,3.887226E-1,4.5269784E-1,1.5243139E-2,-1.1689181E0,-5.939197E-1,5.901669E-1,-7.7516357E-3,-2.0710728E-3,-1.0735222E-2,-8.501305E-3,9.435477E-3,1.5717841E0,1.3040015E-4,1.1490194E0,-1.9125575E-1,1.1847219E-2,-1.5897691E-1,-1.1933454E-2,-2.9464453E-3,-2.2425798E-3,-1.1265035E-2,-2.7245826E-3,1.0827891E-2,4.295005E-3,1.9037198E-2,1.5294813E-2,1.2793556E-3,-5.0060684E-3,5.4691723E-3,-5.453402E-3,5.763693E-3],"categories":[],"categories_nodes":[],"categories_segments":[],"categories_sizes":[],"default_left":[0,0,0,0,0,0,0,0,0,0,0,0,0,0,0,0,0,0,0,0,0,0,0,0,0,0,0,0,0,0,0,0,0,0,0,0,0,0,0,0,0,0,0,0,0,0,0,0,0,0,0,0,0],"id":22,"left_children":[1,3,5,7,9,11,13,15,-1,17,19,21,23,-1,-1,25,27,29,31,-1,33,-1,35,37,-1,39,41,43,-1,-1,-1,-1,-1,45,-1,47,49,-1,51,-1,-1,-1,-1,-1,-1,-1,-1,-1,-1,-1,-1,-1,-1],"loss_changes":[5.0395077E1,1.4618938E1,1.1290945E1,6.12479E0,9.393971E0,9.386284E0,3.5770035E-1,4.329666E0,0E0,2.2795682E0,7.396104E0,6.819585E0,3.105627E0,0E0,0E0,1.7226601E0,2.436591E0,2.72357E-1,3.9338272E0,0E0,2.42068E0,0E0,3.9708376E0,3.4108918E0,0E0,2.503891E-1,2.0669246E0,1.7833495E0,0E0,0E0,0E0,0E0,0E0,1.7166443E0,0E0,1.2898135E0,1.5715054E0,0E0,1.6787615E0,0E0,0E0,0E0,0E0,0E0,0E0,0E0,0E0,0E0,0E0,0E0,0E0,0E0,0E0],"parents":[2147483647,0,0,1,1,2,2,3,3,4,4,5,5,6,6,7,7,9,9,10,10,11,11,12,12,15,15,16,16,17,17,18,18,20,20,22,22,23,23,25,25,26,26,27,27,33,33,35,35,36,36,38,38],"right_children":[2,4,6,8,10,12,14,16,-1,18,20,22,24,-1,-1,26,28,30,32,-1,34,-1,36,38,-1,40,42,44,-1,-1,-1,-1,-1,46,-1,48,50,-1,52,-1,-1,-1,-1,-1,-1,-1,-1,-1,-1,-1,-1,-1,-1],"split_conditions":[1.28E2,6.4E-1,1.66E2,4.54E1,2.9E1,3.4E1,5.8E1,9E0,8.285333E-3,3.27E1,2.6E1,2.5E1,3.1E1,1.7937483E-2,4.981639E-3,1.19E2,4.7E1,6.98E-1,2.5E1,-8.160923E-3,4.1E1,-1.1128656E-2,3.5E1,7.2E1,1.5243139E-2,4.2E1,3.59E1,1.06E2,-7.7516357E-3,-2.0710728E-3,-1.0735222E-2,-8.501305E-3,9.435477E-3,1.19381584E2,1.3040015E-4,4E0,2.04E2,1.1847219E-2,8.8E1,-1.1933454E-2,-2.9464453E-3,-2.2425798E-3,-1.1265035E-2,-2.7245826E-3,1.0827891E-2,4.295005E-3,1.9037198E-2,1.5294813E-2,1.2793556E-3,-5.0060684E-3,5.4691723E-3,-5.453402E-3,5.763693E-3],"split_indices":[1,6,1,5,7,5,7,0,0,5,5,7,7,0,0,4,7,6,7,0,3,0,7,2,0,3,5,4,0,0,0,0,0,4,0,0,4,0,2,0,0,0,0,0,0,0,0,0,0,0,0,0,0],"split_type":[0,0,0,0,0,0,0,0,0,0,0,0,0,0,0,0,0,0,0,0,0,0,0,0,0,0,0,0,0,0,0,0,0,0,0,0,0,0,0,0,0,0,0,0,0,0,0,0,0,0,0,0,0],"sum_hessian":[9.338685E1,5.8116486E1,3.5270363E1,4.2907616E1,1.5208871E1,2.3729116E1,1.1541247E1,4.1568844E1,1.3387718E0,7.0533886E0,8.155482E0,1.1224856E1,1.2504259E1,1.0360762E1,1.180486E0,3.7970703E1,3.5981417E0,4.129094E0,2.9242945E0,1.2810092E0,6.874473E0,3.71815E0,7.5067067E0,6.197032E0,6.307227E0,2.7188896E1,1.0781805E1,2.5023906E0,1.0957513E0,1.0156126E0,3.1134815E0,1.3146088E0,1.6096857E0,5.683886E0,1.1905869E0,2.823813E0,4.6828938E0,2.3945253E0,3.802507E0,2.6094849E1,1.0940485E0,7.2032013E0,3.578603E0,1.0720528E0,1.4303377E0,1.7962866E0,3.8875995E0,1.6945236E0,1.1292894E0,3.5267465E0,1.1561472E0,2.6621554E0,1.1403515E0],"tree_param":{"num_deleted":"0","num_feature":"8","num_nodes":"53","size_leaf_vector":"1"}},{"base_weights":[7.5842915E-3,-5.583662E-1,9.26718E-1,-8.5055035E-1,2.649762E-1,3.9172673E-1,1.5286821E0,-9.2289805E-1,8.225951E-3,-5.3580254E-1,9.384236E-1,-7.36415E-1,8.135389E-1,6.062252E-4,1.6333772E0,-1.0197307E0,9.5348015E-2,-9.3811476E-1,1.25006E-1,-8.129277E-3,1.325E0,1.2279662E-3,-9.533364E-1,-8.06647E-2,1.1586795E0,1.7516409E0,8.276612E-4,-1.1634597E0,-5.90199E-1,5.8621883E-1,-7.7221394E-3,-2.0505206E-3,-1.06931E-2,-8.467053E-3,9.362495E-3,1.556293E0,1.296897E-4,-1.06810285E-2,-2.7165872E-3,-5.832583E-1,7.642757E-3,4.6779504E-1,1.4989494E0,4.5043635E-3,1.8352365E0,-1.1878593E-2,-2.9326563E-3,-2.2243704E-3,-1.1215885E-2,-2.7119168E-3,1.0749907E-2,4.2639645E-3,1.8840477E-2,1.5208854E-3,-9.365064E-3,1.0851895E-2,-3.371939E-3,1.6312564E-2,4.6085864E-3,4.512818E-3,1.9345976E-2],"categories":[],"categories_nodes":[],"categories_segments":[],"categories_sizes":[],"default_left":[0,0,0,0,0,0,0,0,0,0,0,0,0,0,0,0,0,0,0,0,0,0,0,0,0,0,0,0,0,0,0,0,0,0,0,0,0,0,0,0,0,0,0,0,0,0,0,0,0,0,0,0,0,0,0,0,0,0,0,0,0],"id":23,"left_children":[1,3,5,7,9,11,13,15,-1,17,19,21,23,-1,25,27,29,31,33,-1,35,-1,37,39,41,43,-1,45,47,49,-1,-1,-1,-1,-1,51,-1,-1,-1,53,-1,55,57,-1,59,-1,-1,-1,-1,-1,-1,-1,-1,-1,-1,-1,-1,-1,-1,-1,-1],"loss_changes":[4.9544483E1,1.4408262E1,1.1089325E1,6.0552025E0,9.241606E0,1.0382965E1,2.4728584E0,4.278759E0,0E0,2.2544472E0,7.2824574E0,1.2577646E0,4.8586416E0,0E0,2.712246E0,1.7094307E0,2.4104884E0,2.726121E-1,3.8864503E0,0E0,2.3736715E0,0E0,1.01061344E-1,2.6687622E0,1.9330072E0,7.426491E-1,0E0,2.4724197E-1,2.0488253E0,1.760192E0,0E0,0E0,0E0,0E0,0E0,1.6770496E0,0E0,0E0,0E0,1.1423744E0,0E0,2.9260783E0,2.1705818E-1,0E0,9.463463E-1,0E0,0E0,0E0,0E0,0E0,0E0,0E0,0E0,0E0,0E0,0E0,0E0,0E0,0E0,0E0,0E0],"parents":[2147483647,0,0,1,1,2,2,3,3,4,4,5,5,6,6,7,7,9,9,10,10,11,11,12,12,14,14,15,15,16,16,17,17,18,18,20,20,22,22,23,23,24,24,25,25,27,27,28,28,29,29,35,35,39,39,41,41,42,42,44,44],"right_children":[2,4,6,8,10,12,14,16,-1,18,20,22,24,-1,26,28,30,32,34,-1,36,-1,38,40,42,44,-1,46,48,50,-1,-1,-1,-1,-1,52,-1,-1,-1,54,-1,56,58,-1,60,-1,-1,-1,-1,-1,-1,-1,-1,-1,-1,-1,-1,-1,-1,-1,-1],"split_conditions":[1.28E2,6.4E-1,1.55E2,4.54E1,2.9E1,3.02E1,1.65E-1,9E0,8.225951E-3,3.27E1,2.6E1,1.31E2,2.85E-1,6.062252E-4,4.55E1,1.19E2,4.7E1,1.4E1,2.5E1,-8.129277E-3,4.1E1,1.2279662E-3,2.04E2,4.2E1,3E1,1.06E2,8.276612E-4,4.2E1,3.59E1,1.06E2,-7.7221394E-3,-2.0505206E-3,-1.06931E-2,-8.467053E-3,9.362495E-3,1.19381584E2,1.296897E-4,-1.06810285E-2,-2.7165872E-3,2.34E-1,7.642757E-3,1.41E2,1.52E2,4.5043635E-3,1.7E1,-1.1878593E-2,-2.9326563E-3,-2.2243704E-3,-1.1215885E-2,-2.7119168E-3,1.0749907E-2,4.2639645E-3,1.8840477E-2,1.5208854E-3,-9.365064E-3,1.0851895E-2,-3.371939E-3,1.6312564E-2,4.6085864E-3,4.512818E-3,1.9345976E-2],"split_indices":[1,6,1,5,7,5,6,0,0,5,5,1,6,0,5,4,7,3,7,0,3,0,4,7,7,4,0,3,5,4,0,0,0,0,0,4,0,0,0,6,0,1,1,0,3,0,0,0,0,0,0,0,0,0,0,0,0,0,0,0,0],"split_type":[0,0,0,0,0,0,0,0,0,0,0,0,0,0,0,0,0,0,0,0,0,0,0,0,0,0,0,0,0,0,0,0,0,0,0,0,0,0,0,0,0,0,0,0,0,0,0,0,0,0,0,0,0,0,0,0,0,0,0,0,0],"sum_hessian":[9.324938E1,5.7955917E1,3.529346E1,4.2751427E1,1.5204491E1,1.9560211E1,1.573325E1,4.1409275E1,1.3421535E0,7.0389943E0,8.165497E0,5.1202374E0,1.4439974E1,1.1524438E0,1.4580806E1,3.7811993E1,3.5972812E0,4.114416E0,2.924578E0,1.2770486E0,6.8884478E0,1.1195769E0,4.0006604E0,4.2347374E0,1.0205236E1,1.3427089E1,1.1537172E0,2.7051428E1,1.0760566E1,2.5045092E0,1.092772E0,1.0136318E0,3.1007843E0,1.310792E0,1.613786E0,5.6978283E0,1.1906195E0,2.938983E0,1.0616773E0,2.8494887E0,1.3852487E0,4.15127E0,6.0539665E0,1.1961855E0,1.2230904E1,2.5958519E1,1.0929084E0,7.1977625E0,3.5628028E0,1.0709647E0,1.4335444E0,1.7985379E0,3.8992906E0,1.109445E0,1.7400439E0,2.1523914E0,1.9988786E0,4.8627925E0,1.1911743E0,1.1905222E0,1.1040381E1],"tree_param":{"num_deleted":"0","num_feature":"8","num_nodes":"61","size_leaf_vector":"1"}},{"base_weights":[7.813456E-3,-5.5460364E-1,9.1799796E-1,-8.455414E-1,2.6259887E-1,-2.360404E-1,1.1708322E0,-9.178086E-1,8.167158E-3,-5.328942E-1,9.297391E-1,-7.9389995E-1,7.7210474E-3,3.9146417E-1,1.4507139E0,-1.0144366E0,9.447655E-2,-9.339238E-1,1.23969436E-1,-8.097871E-3,1.3124883E0,1.2212443E-3,-1.0731671E-2,6.549903E-1,-5.5390005E-3,1.5356617E0,5.4224044E-1,-1.1580627E0,-5.865078E-1,5.823084E-1,-7.6928567E-3,-2.036388E-3,-1.0649601E-2,-8.433076E-3,9.290351E-3,1.5411377E0,1.2898252E-4,1.9630817E-1,1.2352866E-2,1.5796523E0,4.6809427E-3,5.5850916E-5,8.234328E-3,-1.1824368E-2,-2.9189365E-3,-2.206302E-3,-1.116729E-2,-2.6993148E-3,1.0672868E-2,4.2331815E-3,1.8648725E-2,9.893852E-3,-2.4472426E-3,1.6869068E-2,7.5792777E-3],"categories":[],"categories_nodes":[],"categories_segments":[],"categories_sizes":[],"default_left":[0,0,0,0,0,0,0,0,0,0,0,0,0,0,0,0,0,0,0,0,0,0,0,0,0,0,0,0,0,0,0,0,0,0,0,0,0,0,0,0,0,0,0,0,0,0,0,0,0,0,0,0,0,0,0],"id":24,"left_children":[1,3,5,7,9,11,13,15,-1,17,19,21,-1,23,25,27,29,31,33,-1,35,-1,-1,37,-1,39,41,43,45,47,-1,-1,-1,-1,-1,49,-1,51,-1,53,-1,-1,-1,-1,-1,-1,-1,-1,-1,-1,-1,-1,-1,-1,-1],"loss_changes":[4.8687073E1,1.4200644E1,1.087418E1,5.986498E0,9.092451E0,4.752061E0,5.96764E0,4.2284775E0,0E0,2.2296002E0,7.1713786E0,1.4692173E0,0E0,2.6762547E0,8.4005356E-1,1.6964798E0,2.3847158E0,2.711444E-1,3.8397577E0,0E0,2.3280945E0,0E0,0E0,1.8123717E0,0E0,1.658287E-1,5.08367E-1,2.4417496E-1,2.0309963E0,1.7374084E0,0E0,0E0,0E0,0E0,0E0,1.6391163E0,0E0,2.166161E0,0E0,3.1597137E-1,0E0,0E0,0E0,0E0,0E0,0E0,0E0,0E0,0E0,0E0,0E0,0E0,0E0,0E0,0E0],"parents":[2147483647,0,0,1,1,2,2,3,3,4,4,5,5,6,6,7,7,9,9,10,10,11,11,13,13,14,14,15,15,16,16,17,17,18,18,20,20,23,23,25,25,26,26,27,27,28,28,29,29,35,35,37,37,39,39],"right_children":[2,4,6,8,10,12,14,16,-1,18,20,22,-1,24,26,28,30,32,34,-1,36,-1,-1,38,-1,40,42,44,46,48,-1,-1,-1,-1,-1,50,-1,52,-1,54,-1,-1,-1,-1,-1,-1,-1,-1,-1,-1,-1,-1,-1,-1,-1],"split_conditions":[1.28E2,6.4E-1,2.96E1,4.54E1,2.9E1,1.46E2,2.96E-1,9E0,8.167158E-3,3.27E1,2.6E1,1.31E2,7.7210474E-3,2.69E-1,3.3E2,1.19E2,4.7E1,6.98E-1,2.5E1,-8.097871E-3,4.1E1,1.2212443E-3,-1.0731671E-2,1.66E2,-5.5390005E-3,4.9E1,1.74E2,4.2E1,3.59E1,1.06E2,-7.6928567E-3,-2.036388E-3,-1.0649601E-2,-8.433076E-3,9.290351E-3,1.19381584E2,1.2898252E-4,1.4618565E2,1.2352866E-2,1.057E0,4.6809427E-3,5.5850916E-5,8.234328E-3,-1.1824368E-2,-2.9189365E-3,-2.206302E-3,-1.116729E-2,-2.6993148E-3,1.0672868E-2,4.2331815E-3,1.8648725E-2,9.893852E-3,-2.4472426E-3,1.6869068E-2,7.5792777E-3],"split_indices":[1,6,5,5,7,1,6,0,0,5,5,1,0,6,4,4,7,6,7,0,3,0,0,1,0,3,1,3,5,4,0,0,0,0,0,4,0,4,0,6,0,0,0,0,0,0,0,0,0,0,0,0,0,0,0],"split_type":[0,0,0,0,0,0,0,0,0,0,0,0,0,0,0,0,0,0,0,0,0,0,0,0,0,0,0,0,0,0,0,0,0,0,0,0,0,0,0,0,0,0,0,0,0,0,0,0,0,0,0,0,0,0,0],"sum_hessian":[9.311533E1,5.779412E1,3.5321213E1,4.2594933E1,1.5199189E1,6.35964E0,2.896157E1,4.1249454E1,1.3454794E0,7.0244794E0,8.17471E0,4.230949E0,2.1286917E0,8.286204E0,2.0675367E1,3.7653133E1,3.596319E0,4.099719E0,2.9247603E0,1.2730796E0,6.9016304E0,1.119984E0,3.1109648E0,6.7200923E0,1.5661118E0,1.8276066E1,2.3993013E0,2.6913824E1,1.0739311E1,2.5065353E0,1.0897837E0,1.0122675E0,3.0874515E0,1.3069608E0,1.6177995E0,5.7109785E0,1.190652E0,4.500814E0,2.2192783E0,1.7092089E1,1.183977E0,1.1755766E0,1.2237248E0,2.5822052E1,1.0917709E0,7.192356E0,3.5469549E0,1.0698795E0,1.4366558E0,1.8007612E0,3.9102175E0,1.1641206E0,3.3366935E0,1.41874075E1,2.9046807E0],"tree_param":{"num_deleted":"0","num_feature":"8","num_nodes":"55","size_leaf_vector":"1"}},{"base_weights":[8.082498E-3,-5.508866E-1,9.0927786E-1,-9.3027514E-1,7.578658E-2,3.8319752E-1,1.4999888E0,-1.0684448E0,1.0274248E-1,-8.203542E-1,7.742852E-1,-7.293336E-1,7.964346E-1,5.610477E-4,1.6030457E0,-1.1141412E0,-4.1492614E-5,-6.456303E-3,8.113133E-3,-1.080003E0,-1.384438E-1,-7.983566E-3,1.0024961E0,1.2145601E-3,-9.4540143E-1,-7.976677E-2,1.1331377E0,1.7192162E0,7.9372287E-4,-2.2502774E-3,-1.1632416E0,-2.7519378E-3,-1.1720159E-2,5.5603185E-3,-6.0428004E-3,-3.0863576E-3,1.1608583E0,-1.0597847E-2,-2.6844062E-3,-5.784042E-1,7.5487522E-3,4.5126742E-1,1.470952E0,4.4237254E-3,1.801279E0,-1.1847676E-2,-3.983542E-3,4.9521686E-3,1.535675E-2,1.5383541E-3,-9.3176905E-3,1.0642371E-2,-3.438171E-3,1.6022762E-2,4.4923173E-3,4.434231E-3,1.8986374E-2],"categories":[],"categories_nodes":[],"categories_segments":[],"categories_sizes":[],"default_left":[0,0,0,0,0,0,0,0,0,0,0,0,0,0,0,0,0,0,0,0,0,0,0,0,0,0,0,0,0,0,0,0,0,0,0,0,0,0,0,0,0,0,0,0,0,0,0,0,0,0,0,0,0,0,0,0,0],"id":25,"left_children":[1,3,5,7,9,11,13,15,17,19,21,23,25,-1,27,29,-1,-1,-1,31,33,-1,35,-1,37,39,41,43,-1,-1,45,-1,-1,-1,-1,-1,47,-1,-1,49,-1,51,53,-1,55,-1,-1,-1,-1,-1,-1,-1,-1,-1,-1,-1,-1],"loss_changes":[4.784662E1,1.4010216E1,1.0723614E1,5.3332634E0,1.505379E1,1.0039417E1,2.4074745E0,1.569519E0,3.2969964E0,1.7229295E0,5.6307917E0,1.2351022E0,4.6571703E0,0E0,2.629982E0,1.0929031E0,0E0,0E0,0E0,2.3375702E-1,1.6505438E0,0E0,2.8907814E0,0E0,1.0064411E-1,2.6138372E0,1.9271822E0,7.197113E-1,0E0,0E0,8.274078E-3,0E0,0E0,0E0,0E0,0E0,2.0070295E0,0E0,0E0,1.1372042E0,0E0,2.885085E0,2.3006916E-1,0E0,9.128914E-1,0E0,0E0,0E0,0E0,0E0,0E0,0E0,0E0,0E0,0E0,0E0,0E0],"parents":[2147483647,0,0,1,1,2,2,3,3,4,4,5,5,6,6,7,7,8,8,9,9,10,10,11,11,12,12,14,14,15,15,19,19,20,20,22,22,24,24,25,25,26,26,27,27,30,30,36,36,39,39,41,41,42,42,44,44],"right_children":[2,4,6,8,10,12,14,16,18,20,22,24,26,-1,28,30,-1,-1,-1,32,34,-1,36,-1,38,40,42,44,-1,-1,46,-1,-1,-1,-1,-1,48,-1,-1,50,-1,52,54,-1,56,-1,-1,-1,-1,-1,-1,-1,-1,-1,-1,-1,-1],"split_conditions":[1.28E2,1.14E2,1.55E2,7.57E-1,2.9E1,3.02E1,1.65E-1,1E1,3.27E1,3.5E1,1.92E-1,1.31E2,2.85E-1,5.610477E-4,4.55E1,5.2E1,-4.1492614E-5,-6.456303E-3,8.113133E-3,1.2E2,3.59E1,-7.983566E-3,2.72E1,1.2145601E-3,2.04E2,4.2E1,3E1,1.06E2,7.9372287E-4,-2.2502774E-3,4.2E1,-2.7519378E-3,-1.1720159E-2,5.5603185E-3,-6.0428004E-3,-3.0863576E-3,5.49E-1,-1.0597847E-2,-2.6844062E-3,7E1,7.5487522E-3,1.41E2,1.52E2,4.4237254E-3,1.7E1,-1.1847676E-2,-3.983542E-3,4.9521686E-3,1.535675E-2,1.5383541E-3,-9.3176905E-3,1.0642371E-2,-3.438171E-3,1.6022762E-2,4.4923173E-3,4.434231E-3,1.8986374E-2],"split_indices":[1,4,1,6,7,5,6,0,5,3,6,1,6,0,5,2,0,0,0,4,5,0,5,0,4,7,7,4,0,0,3,0,0,0,0,0,6,0,0,2,0,1,1,0,3,0,0,0,0,0,0,0,0,0,0,0,0],"split_type":[0,0,0,0,0,0,0,0,0,0,0,0,0,0,0,0,0,0,0,0,0,0,0,0,0,0,0,0,0,0,0,0,0,0,0,0,0,0,0,0,0,0,0,0,0,0,0,0,0,0,0,0,0,0,0,0,0],"sum_hessian":[9.2988335E1,5.7631157E1,3.5357178E1,3.559652E1,2.2034637E1,1.9573738E1,1.578344E1,3.1366804E1,4.2297153E0,9.575398E0,1.2459239E1,5.0941534E0,1.4479585E1,1.1543771E0,1.4629063E1,3.0030584E1,1.3362213E0,2.1002827E0,2.1294327E0,6.5120406E0,3.0633578E0,1.2622846E0,1.1196954E1,1.1203882E0,3.9737654E0,4.231378E0,1.0248206E1,1.3473458E1,1.1556036E0,1.8637972E0,2.8166786E1,1.0775814E0,5.434459E0,1.1521277E0,1.9112301E0,1.1043942E0,1.009256E1,2.9156208E0,1.0581445E0,2.8410578E0,1.3903203E0,4.1690083E0,6.0791984E0,1.1995702E0,1.2273889E1,2.6861876E1,1.3049103E0,4.4719663E0,5.6205935E0,1.1085618E0,1.7324959E0,2.1629574E0,2.0060508E0,4.883319E0,1.1958795E0,1.1927795E0,1.1081109E1],"tree_param":{"num_deleted":"0","num_feature":"8","num_nodes":"57","size_leaf_vector":"1"}},{"base_weights":[8.235851E-3,-5.473554E-1,9.0085214E-1,-9.252185E-1,7.483191E-2,4.8432213E-1,1.647558E0,-1.0631993E0,1.02054186E-1,-8.1604993E-1,7.665337E-1,-1.5960588E-1,1.0274105E0,1.728273E-2,4.7456133E-3,-1.1088884E0,-4.1255662E-5,-6.4238696E-3,8.0477E-3,-1.075344E0,-1.372736E-1,-7.953224E-3,9.925671E-1,-1.1026708E-2,3.7711245E-1,4.333326E-1,1.4712433E-2,-2.2369863E-3,-1.1579769E0,-2.739125E-3,-1.1672557E-2,5.52597E-3,-6.012404E-3,-3.0718609E-3,1.1492866E0,1.1275465E0,-1.9573149E-1,1.1466925E-2,-1.6356263E-1,-1.1794759E-2,-3.964234E-3,4.907124E-3,1.5198347E-2,1.5035958E-2,1.2185697E-3,-5.0122747E-3,5.3371494E-3,-5.4724813E-3,5.6824177E-3],"categories":[],"categories_nodes":[],"categories_segments":[],"categories_sizes":[],"default_left":[0,0,0,0,0,0,0,0,0,0,0,0,0,0,0,0,0,0,0,0,0,0,0,0,0,0,0,0,0,0,0,0,0,0,0,0,0,0,0,0,0,0,0,0,0,0,0,0,0],"id":26,"left_children":[1,3,5,7,9,11,13,15,17,19,21,23,25,-1,-1,27,-1,-1,-1,29,31,-1,33,-1,35,37,-1,-1,39,-1,-1,-1,-1,-1,41,43,45,-1,47,-1,-1,-1,-1,-1,-1,-1,-1,-1,-1],"loss_changes":[4.7031803E1,1.3813751E1,1.0516943E1,5.2746906E0,1.4807754E1,8.825945E0,3.7374878E-1,1.5544434E0,3.2520275E0,1.7080526E0,5.5452023E0,6.58995E0,2.9407606E0,0E0,0E0,1.0829086E0,0E0,0E0,0E0,2.3146057E-1,1.6319692E0,0E0,2.8407927E0,0E0,3.8828168E0,3.262172E0,0E0,0E0,7.572174E-3,0E0,0E0,0E0,0E0,0E0,1.9653587E0,1.267406E0,1.5339687E0,0E0,1.6605444E0,0E0,0E0,0E0,0E0,0E0,0E0,0E0,0E0,0E0,0E0],"parents":[2147483647,0,0,1,1,2,2,3,3,4,4,5,5,6,6,7,7,8,8,9,9,10,10,11,11,12,12,15,15,19,19,20,20,22,22,24,24,25,25,28,28,34,34,35,35,36,36,38,38],"right_children":[2,4,6,8,10,12,14,16,18,20,22,24,26,-1,-1,28,-1,-1,-1,30,32,-1,34,-1,36,38,-1,-1,40,-1,-1,-1,-1,-1,42,44,46,-1,48,-1,-1,-1,-1,-1,-1,-1,-1,-1,-1],"split_conditions":[1.28E2,1.14E2,1.66E2,7.57E-1,2.9E1,3.4E1,5.8E1,1E1,3.27E1,3.5E1,1.92E-1,2.5E1,3.1E1,1.728273E-2,4.7456133E-3,5.2E1,-4.1255662E-5,-6.4238696E-3,8.0477E-3,1.2E2,3.59E1,-7.953224E-3,2.72E1,-1.1026708E-2,3.5E1,7.2E1,1.4712433E-2,-2.2369863E-3,4.2E1,-2.739125E-3,-1.1672557E-2,5.52597E-3,-6.012404E-3,-3.0718609E-3,5.49E-1,4E0,2.04E2,1.1466925E-2,8.8E1,-1.1794759E-2,-3.964234E-3,4.907124E-3,1.5198347E-2,1.5035958E-2,1.2185697E-3,-5.0122747E-3,5.3371494E-3,-5.4724813E-3,5.6824177E-3],"split_indices":[1,4,1,6,7,5,7,0,5,3,6,7,7,0,0,2,0,0,0,4,5,0,5,0,7,2,0,0,3,0,0,0,0,0,6,0,4,0,2,0,0,0,0,0,0,0,0,0,0],"split_type":[0,0,0,0,0,0,0,0,0,0,0,0,0,0,0,0,0,0,0,0,0,0,0,0,0,0,0,0,0,0,0,0,0,0,0,0,0,0,0,0,0,0,0,0,0,0,0,0,0],"sum_hessian":[9.284133E1,5.746203E1,3.5379303E1,3.544733E1,2.20147E1,2.3769007E1,1.1610296E1,3.1219088E1,4.228243E0,9.543419E0,1.2471281E1,1.1197953E1,1.2571054E1,1.04199095E1,1.190387E0,2.9882883E1,1.336203E0,2.0948536E0,2.1333895E0,6.4827538E0,3.0606654E0,1.2582647E0,1.12130165E1,3.679048E0,7.5189047E0,6.220779E0,6.3502755E0,1.8620728E0,2.8020811E1,1.0764792E0,5.406275E0,1.1539035E0,1.9067619E0,1.1032346E0,1.0109782E1,2.835728E0,4.683177E0,2.4143052E0,3.8064737E0,2.6717777E1,1.3030328E0,4.47704E0,5.632742E0,1.7036184E0,1.1321095E0,3.5213027E0,1.161874E0,2.662642E0,1.1438316E0],"tree_param":{"num_deleted":"0","num_feature":"8","num_nodes":"49","size_leaf_vector":"1"}},{"base_weights":[8.488896E-3,-5.4386526E-1,8.9300644E-1,-8.313544E-1,2.5656065E-1,3.7648538E-1,1.4715149E0,-9.0376866E-1,8.12838E-3,-5.236008E-1,9.0537417E-1,-7.2337186E-1,7.8276193E-1,5.293351E-4,1.5726559E0,-1.0001161E0,9.458319E-2,-9.208053E-1,1.21337935E-1,-8.019328E-3,1.2782226E0,1.1939551E-3,-9.382973E-1,-8.082655E-2,1.1140119E0,1.6865383E0,7.698963E-4,-1.1428535E0,-5.779907E-1,5.7870996E-1,-7.6482203E-3,-1.9188126E-3,-1.05353985E-2,-8.3927335E-3,9.17563E-3,1.5062314E0,-2.2673521E-5,-1.0524426E-2,-2.65023E-3,-5.7606816E-1,7.46123E-3,4.444358E-1,1.4449923E0,4.327023E-3,1.7673194E0,-1.1672115E-2,-2.8714025E-3,-1.5097671E-3,-1.0131538E-2,-2.6383267E-3,1.053895E-2,4.1795475E-3,1.818729E-2,1.5415442E-3,-9.289424E-3,1.0479422E-2,-3.4096607E-3,1.5740314E-2,4.413039E-3,4.3387725E-3,1.8630533E-2],"categories":[],"categories_nodes":[],"categories_segments":[],"categories_sizes":[],"default_left":[0,0,0,0,0,0,0,0,0,0,0,0,0,0,0,0,0,0,0,0,0,0,0,0,0,0,0,0,0,0,0,0,0,0,0,0,0,0,0,0,0,0,0,0,0,0,0,0,0,0,0,0,0,0,0,0,0,0,0,0,0],"id":27,"left_children":[1,3,5,7,9,11,13,15,-1,17,19,21,23,-1,25,27,29,31,33,-1,35,-1,37,39,41,43,-1,45,47,49,-1,-1,-1,-1,-1,51,-1,-1,-1,53,-1,55,57,-1,59,-1,-1,-1,-1,-1,-1,-1,-1,-1,-1,-1,-1,-1,-1,-1,-1],"loss_changes":[4.6256477E1,1.3627058E1,1.0320328E1,5.869047E0,8.658067E0,9.757767E0,2.3303337E0,4.1131706E0,0E0,2.1546068E0,6.8773847E0,1.2112064E0,4.524435E0,0E0,2.5388374E0,1.6403542E0,2.3525803E0,2.8660345E-1,3.7706656E0,0E0,2.319045E0,0E0,1.0134983E-1,2.5716608E0,1.8557558E0,7.050781E-1,0E0,2.383461E-1,2.0161176E0,1.6816032E0,0E0,0E0,0E0,0E0,0E0,1.5299568E0,0E0,0E0,0E0,1.1314617E0,0E0,2.8091831E0,2.247715E-1,0E0,8.906059E-1,0E0,0E0,0E0,0E0,0E0,0E0,0E0,0E0,0E0,0E0,0E0,0E0,0E0,0E0,0E0,0E0],"parents":[2147483647,0,0,1,1,2,2,3,3,4,4,5,5,6,6,7,7,9,9,10,10,11,11,12,12,14,14,15,15,16,16,17,17,18,18,20,20,22,22,23,23,24,24,25,25,27,27,28,28,29,29,35,35,39,39,41,41,42,42,44,44],"right_children":[2,4,6,8,10,12,14,16,-1,18,20,22,24,-1,26,28,30,32,34,-1,36,-1,38,40,42,44,-1,46,48,50,-1,-1,-1,-1,-1,52,-1,-1,-1,54,-1,56,58,-1,60,-1,-1,-1,-1,-1,-1,-1,-1,-1,-1,-1,-1,-1,-1,-1,-1],"split_conditions":[1.28E2,6.4E-1,1.55E2,4.54E1,2.9E1,3.02E1,1.65E-1,9E0,8.12838E-3,3.27E1,2.6E1,1.31E2,2.85E-1,5.293351E-4,4.55E1,1.19E2,4.7E1,6.98E-1,2.5E1,-8.019328E-3,4.1E1,1.1939551E-3,2.04E2,4.2E1,3E1,1.06E2,7.698963E-4,4.2E1,1.5952638E2,1.06E2,-7.6482203E-3,-1.9188126E-3,-1.05353985E-2,-8.3927335E-3,9.17563E-3,1.19381584E2,-2.2673521E-5,-1.0524426E-2,-2.65023E-3,2.34E-1,7.46123E-3,1.41E2,1.52E2,4.327023E-3,1.7E1,-1.1672115E-2,-2.8714025E-3,-1.5097671E-3,-1.0131538E-2,-2.6383267E-3,1.053895E-2,4.1795475E-3,1.818729E-2,1.5415442E-3,-9.289424E-3,1.0479422E-2,-3.4096607E-3,1.5740314E-2,4.413039E-3,4.3387725E-3,1.8630533E-2],"split_indices":[1,6,1,5,7,5,6,0,0,5,5,1,6,0,5,4,7,6,7,0,3,0,4,7,7,4,0,3,4,4,0,0,0,0,0,4,0,0,0,6,0,1,1,0,3,0,0,0,0,0,0,0,0,0,0,0,0,0,0,0,0],"split_type":[0,0,0,0,0,0,0,0,0,0,0,0,0,0,0,0,0,0,0,0,0,0,0,0,0,0,0,0,0,0,0,0,0,0,0,0,0,0,0,0,0,0,0,0,0,0,0,0,0,0,0,0,0,0,0,0,0,0,0,0,0],"sum_hessian":[9.268379E1,5.729189E1,3.5391907E1,4.212368E1,1.516821E1,1.9569803E1,1.58221035E1,4.077804E1,1.3456373E0,6.974616E0,8.193594E0,5.068379E0,1.4501424E1,1.1543809E0,1.4667723E1,3.7187443E1,3.5906E0,4.0515866E0,2.9230294E0,1.2623498E0,6.931244E0,1.1202245E0,3.9481544E0,4.2298765E0,1.0271547E1,1.35113325E1,1.1563904E0,2.6514471E1,1.0672971E1,2.5056908E0,1.0849093E0,1.0008622E0,3.0507243E0,1.3002584E0,1.622771E0,5.7339435E0,1.1973006E0,2.8942928E0,1.0538617E0,2.8352754E0,1.3946015E0,4.1727753E0,6.098772E0,1.2025505E0,1.2308782E1,2.5426674E1,1.0877976E0,6.0667615E0,4.606209E0,1.0639673E0,1.4417235E0,1.8006444E0,3.9332988E0,1.1072097E0,1.7280656E0,2.1706004E0,2.0021746E0,4.900493E0,1.1982791E0,1.1950791E0,1.1113703E1],"tree_param":{"num_deleted":"0","num_feature":"8","num_nodes":"61","size_leaf_vector":"1"}},{"base_weights":[8.704775E-3,-5.4023916E-1,8.8485986E-1,-9.152983E-1,7.350305E-2,3.735015E-1,1.4567496E0,-1.0531616E0,1.0305987E-1,-8.083901E-1,7.538159E-1,-7.196989E-1,7.761744E-1,5.264633E-4,1.5567279E0,-1.0989178E0,-2.4616662E-5,-6.355587E-3,7.958018E-3,-1.0672216E0,-1.3471138E-1,-7.914624E-3,9.7678685E-1,1.187427E-3,-9.34172E-1,-8.012046E-2,1.1040654E0,1.6692747E0,7.65684E-4,-2.1754173E-3,-1.1481848E0,-2.6827913E-3,-1.1596455E-2,5.4986123E-3,-5.970153E-3,-3.0462616E-3,1.1308577E0,-1.0480357E-2,-2.6379828E-3,-5.731308E-1,7.409367E-3,4.411952E-1,1.4312487E0,4.301582E-3,1.7488908E0,-1.1696456E-2,-3.9269305E-3,4.863306E-3,1.4919152E-2,1.5513104E-3,-9.260746E-3,1.0394219E-2,-3.3894528E-3,1.5584241E-2,4.387028E-3,4.3133697E-3,1.8432256E-2],"categories":[],"categories_nodes":[],"categories_segments":[],"categories_sizes":[],"default_left":[0,0,0,0,0,0,0,0,0,0,0,0,0,0,0,0,0,0,0,0,0,0,0,0,0,0,0,0,0,0,0,0,0,0,0,0,0,0,0,0,0,0,0,0,0,0,0,0,0,0,0,0,0,0,0,0,0],"id":28,"left_children":[1,3,5,7,9,11,13,15,17,19,21,23,25,-1,27,29,-1,-1,-1,31,33,-1,35,-1,37,39,41,43,-1,-1,45,-1,-1,-1,-1,-1,47,-1,-1,49,-1,51,53,-1,55,-1,-1,-1,-1,-1,-1,-1,-1,-1,-1,-1,-1],"loss_changes":[4.5464603E1,1.3447386E1,1.0103218E1,5.1842175E0,1.4392591E1,9.611934E0,2.2823448E0,1.5324364E0,3.1775324E0,1.6848531E0,5.419852E0,1.1997731E0,4.443553E0,0E0,2.48555E0,1.0788078E0,0E0,0E0,0E0,2.3766232E-1,1.6116971E0,0E0,2.7597055E0,0E0,1.0018492E-1,2.5405924E0,1.8157988E0,6.8123627E-1,0E0,0E0,6.717682E-3,0E0,0E0,0E0,0E0,0E0,1.8651142E0,0E0,0E0,1.1280956E0,0E0,2.7673113E0,2.137022E-1,0E0,8.614502E-1,0E0,0E0,0E0,0E0,0E0,0E0,0E0,0E0,0E0,0E0,0E0,0E0],"parents":[2147483647,0,0,1,1,2,2,3,3,4,4,5,5,6,6,7,7,8,8,9,9,10,10,11,11,12,12,14,14,15,15,19,19,20,20,22,22,24,24,25,25,26,26,27,27,30,30,36,36,39,39,41,41,42,42,44,44],"right_children":[2,4,6,8,10,12,14,16,18,20,22,24,26,-1,28,30,-1,-1,-1,32,34,-1,36,-1,38,40,42,44,-1,-1,46,-1,-1,-1,-1,-1,48,-1,-1,50,-1,52,54,-1,56,-1,-1,-1,-1,-1,-1,-1,-1,-1,-1,-1,-1],"split_conditions":[1.28E2,1.14E2,1.55E2,7.57E-1,2.9E1,3.02E1,1.65E-1,1E1,3.27E1,3.5E1,1.92E-1,1.31E2,2.85E-1,5.264633E-4,4.55E1,5.2E1,-2.4616662E-5,-6.355587E-3,7.958018E-3,1.2E2,3.59E1,-7.914624E-3,2.72E1,1.187427E-3,2.04E2,4.2E1,3E1,1.06E2,7.65684E-4,-2.1754173E-3,4.2E1,-2.6827913E-3,-1.1596455E-2,5.4986123E-3,-5.970153E-3,-3.0462616E-3,5.49E-1,-1.0480357E-2,-2.6379828E-3,7E1,7.409367E-3,1.41E2,1.52E2,4.301582E-3,1.7E1,-1.1696456E-2,-3.9269305E-3,4.863306E-3,1.4919152E-2,1.5513104E-3,-9.260746E-3,1.0394219E-2,-3.3894528E-3,1.5584241E-2,4.387028E-3,4.3133697E-3,1.8432256E-2],"split_indices":[1,4,1,6,7,5,6,0,5,3,6,1,6,0,5,2,0,0,0,4,5,0,5,0,4,7,7,4,0,0,3,0,0,0,0,0,6,0,0,2,0,1,1,0,3,0,0,0,0,0,0,0,0,0,0,0,0],"split_type":[0,0,0,0,0,0,0,0,0,0,0,0,0,0,0,0,0,0,0,0,0,0,0,0,0,0,0,0,0,0,0,0,0,0,0,0,0,0,0,0,0,0,0,0,0,0,0,0,0,0,0,0,0,0,0,0,0],"sum_hessian":[9.2534935E1,5.712647E1,3.540847E1,3.5153038E1,2.197343E1,1.9566277E1,1.5842195E1,3.0931423E1,4.2216134E0,9.487052E0,1.2486379E1,5.0550966E0,1.4511179E1,1.1545255E0,1.4687669E1,2.9596647E1,1.3347752E0,2.0831032E0,2.13851E0,6.43176E0,3.0552926E0,1.2529955E0,1.1233383E1,1.1206157E0,3.934481E0,4.227255E0,1.0283924E1,1.3531043E1,1.1566257E0,1.853498E0,2.774315E1,1.0715582E0,5.360202E0,1.1552389E0,1.9000537E0,1.100801E0,1.0132583E1,2.881666E0,1.0528148E0,2.8299491E0,1.3973057E0,4.174629E0,6.1092954E0,1.2034757E0,1.2327567E1,2.644378E1,1.2993686E0,4.480809E0,5.651773E0,1.1067512E0,1.7231978E0,2.174686E0,1.9999434E0,4.9100413E0,1.1992539E0,1.1959808E0,1.1131587E1],"tree_param":{"num_deleted":"0","num_feature":"8","num_nodes":"57","size_leaf_vector":"1"}},{"base_weights":[8.840185E-3,-5.3682345E-1,8.7685716E-1,-9.103803E-1,7.2567776E-2,4.7197047E-1,1.6006202E0,-1.0480635E0,1.0236279E-1,-8.041898E-1,7.463822E-1,-1.5882997E-1,1.0015012E0,1.6799955E-2,4.5812842E-3,-1.0938189E0,-2.447611E-5,-6.3237995E-3,7.894337E-3,-1.0626895E0,-1.3357478E-1,-7.8847855E-3,9.672869E-1,-1.0945648E-2,3.7006474E-1,4.236259E-1,1.4319058E-2,-2.162565E-3,-1.1430837E0,-2.6703216E-3,-1.1550304E-2,3.702147E-3,-7.8022056E-3,1.1207005E0,-3.0621928E-3,1.1123127E0,-1.9740848E-1,1.1205275E-2,-1.6201337E-1,-1.1645237E-2,-3.9079315E-3,-5.501313E-5,1.2746985E-2,1.4844578E-2,1.1823776E-3,-4.9991915E-3,5.2411705E-3,-5.445791E-3,5.658783E-3],"categories":[],"categories_nodes":[],"categories_segments":[],"categories_sizes":[],"default_left":[0,0,0,0,0,0,0,0,0,0,0,0,0,0,0,0,0,0,0,0,0,0,0,0,0,0,0,0,0,0,0,0,0,0,0,0,0,0,0,0,0,0,0,0,0,0,0,0,0],"id":29,"left_children":[1,3,5,7,9,11,13,15,17,19,21,23,25,-1,-1,27,-1,-1,-1,29,31,-1,33,-1,35,37,-1,-1,39,-1,-1,-1,-1,41,-1,43,45,-1,47,-1,-1,-1,-1,-1,-1,-1,-1,-1,-1],"loss_changes":[4.469823E1,1.3259026E1,9.917755E0,5.1275463E0,1.4159126E1,8.434403E0,3.7731552E-1,1.5179367E0,3.1343558E0,1.6704617E0,5.3386683E0,6.4276524E0,2.7772875E0,0E0,0E0,1.0691948E0,0E0,0E0,0E0,2.354374E-1,1.6090676E0,0E0,2.7359552E0,0E0,3.8091316E0,3.1314392E0,0E0,0E0,6.160736E-3,0E0,0E0,0E0,0E0,1.9399319E0,0E0,1.2462196E0,1.5015512E0,0E0,1.6451058E0,0E0,0E0,0E0,0E0,0E0,0E0,0E0,0E0,0E0,0E0],"parents":[2147483647,0,0,1,1,2,2,3,3,4,4,5,5,6,6,7,7,8,8,9,9,10,10,11,11,12,12,15,15,19,19,20,20,22,22,24,24,25,25,28,28,33,33,35,35,36,36,38,38],"right_children":[2,4,6,8,10,12,14,16,18,20,22,24,26,-1,-1,28,-1,-1,-1,30,32,-1,34,-1,36,38,-1,-1,40,-1,-1,-1,-1,42,-1,44,46,-1,48,-1,-1,-1,-1,-1,-1,-1,-1,-1,-1],"split_conditions":[1.28E2,1.14E2,1.66E2,7.57E-1,2.9E1,3.4E1,5.8E1,1E1,3.27E1,3.5E1,1.92E-1,2.5E1,3.1E1,1.6799955E-2,4.5812842E-3,5.2E1,-2.447611E-5,-6.3237995E-3,7.894337E-3,1.2E2,4.2E1,-7.8847855E-3,5.3E1,-1.0945648E-2,3.5E1,7.2E1,1.4319058E-2,-2.162565E-3,4.2E1,-2.6703216E-3,-1.1550304E-2,3.702147E-3,-7.8022056E-3,6.2E1,-3.0621928E-3,4E0,2.04E2,1.1205275E-2,8.8E1,-1.1645237E-2,-3.9079315E-3,-5.501313E-5,1.2746985E-2,1.4844578E-2,1.1823776E-3,-4.9991915E-3,5.2411705E-3,-5.445791E-3,5.658783E-3],"split_indices":[1,4,1,6,7,5,7,0,5,3,6,